svm_type c_svc
kernel_type rbf
gamma 0.707107
nr_class 2
total_sv 1174
rho 0.423445
label 1 -1
nr_sv 668 506
SV
0.9309723611549585 156:0.26726124 162:0.26726124 201:0.26726124 227:0.26726124 356:0.26726124 473:0.26726124 620:0.26726124 988:0.26726124 1337:0.26726124 1456:0.26726124 1993:0.26726124 2232:0.26726124 3471:0.26726124 4042:0.26726124 
1 1:0.1796053 28:0.3592106 31:0.1796053 97:0.1796053 111:0.1796053 114:0.1796053 187:0.1796053 212:0.1796053 227:0.1796053 237:0.1796053 386:0.1796053 472:0.1796053 473:0.1796053 600:0.3592106 1136:0.1796053 1447:0.1796053 1656:0.1796053 1760:0.1796053 1990:0.1796053 2068:0.1796053 2895:0.1796053 2913:0.1796053 3545:0.1796053 4075:0.1796053 4190:0.1796053 
0.2192568388284122 18:0.15617376 21:0.15617376 38:0.15617376 82:0.15617376 97:0.15617376 114:0.15617376 123:0.15617376 188:0.15617376 195:0.31234752 208:0.15617376 226:0.15617376 230:0.15617376 236:0.15617376 257:0.15617376 309:0.15617376 337:0.15617376 405:0.15617376 443:0.15617376 767:0.15617376 777:0.15617376 818:0.15617376 850:0.15617376 886:0.15617376 900:0.15617376 954:0.15617376 955:0.15617376 1027:0.15617376 1179:0.15617376 1442:0.15617376 1530:0.15617376 1745:0.15617376 1799:0.15617376 1901:0.15617376 2348:0.15617376 2685:0.15617376 2762:0.15617376 3664:0.15617376 3666:0.15617376 
0.2330865399756683 37:0.4472136 50:0.2236068 118:0.2236068 162:0.2236068 186:0.2236068 262:0.2236068 282:0.2236068 288:0.2236068 308:0.2236068 326:0.2236068 424:0.2236068 636:0.2236068 934:0.2236068 1286:0.2236068 1654:0.2236068 3403:0.2236068 4449:0.2236068 
0.4561583706468494 4:0.17407766 18:0.17407766 31:0.78334945 56:0.087038828 57:0.087038828 64:0.087038828 65:0.17407766 83:0.087038828 99:0.087038828 177:0.087038828 185:0.087038828 394:0.087038828 619:0.087038828 620:0.087038828 671:0.087038828 731:0.087038828 747:0.087038828 821:0.087038828 844:0.087038828 957:0.087038828 993:0.087038828 1011:0.17407766 1031:0.17407766 1064:0.087038828 1203:0.17407766 1345:0.087038828 1642:0.087038828 1838:0.087038828 2022:0.087038828 2339:0.087038828 2998:0.087038828 3571:0.087038828 4235:0.087038828 4483:0.087038828 
0.06495933478784759 4:0.15617376 18:0.15617376 26:0.15617376 28:0.31234752 31:0.46852129 78:0.15617376 87:0.15617376 112:0.15617376 115:0.15617376 118:0.15617376 205:0.15617376 321:0.15617376 465:0.15617376 508:0.15617376 533:0.15617376 619:0.15617376 819:0.15617376 886:0.15617376 891:0.15617376 1124:0.15617376 1216:0.15617376 1411:0.15617376 1552:0.15617376 1834:0.15617376 2077:0.15617376 2675:0.15617376 2780:0.15617376 3036:0.15617376 3146:0.15617376 3956:0.15617376 
0.3026614459234761 4:0.43643578 18:0.21821789 31:0.21821789 51:0.21821789 54:0.21821789 97:0.21821789 149:0.21821789 316:0.21821789 515:0.21821789 600:0.21821789 646:0.21821789 698:0.21821789 1337:0.21821789 1345:0.21821789 2225:0.21821789 3096:0.21821789 3412:0.21821789 3673:0.21821789 
1 4:0.13245324 31:0.52981294 91:0.26490647 110:0.13245324 114:0.13245324 123:0.13245324 187:0.13245324 193:0.13245324 250:0.26490647 254:0.13245324 331:0.13245324 551:0.13245324 552:0.13245324 619:0.13245324 790:0.13245324 850:0.13245324 892:0.13245324 1136:0.13245324 1216:0.13245324 1529:0.39735971 1742:0.13245324 1847:0.13245324 3283:0.13245324 3298:0.13245324 4267:0.13245324 4454:0.13245324 4512:0.13245324 4524:0.13245324 
0.3034633221250841 4:0.2 64:0.4 65:0.2 89:0.2 194:0.2 208:0.2 217:0.2 250:0.2 301:0.2 308:0.2 321:0.2 406:0.2 527:0.2 562:0.2 600:0.2 765:0.2 826:0.2 1033:0.2 1079:0.2 1204:0.2 1528:0.2 1738:0.2 
0.7190525156664578 1:0.16012815 18:0.16012815 31:0.32025631 73:0.16012815 161:0.16012815 188:0.16012815 213:0.16012815 216:0.16012815 229:0.16012815 359:0.32025631 445:0.32025631 459:0.16012815 718:0.32025631 783:0.16012815 877:0.16012815 1208:0.16012815 1216:0.32025631 1329:0.16012815 1453:0.16012815 1865:0.16012815 2401:0.32025631 
0.077085253000387 4:0.31622777 50:0.31622777 106:0.15811388 110:0.15811388 184:0.15811388 212:0.15811388 282:0.15811388 317:0.15811388 453:0.15811388 546:0.15811388 590:0.15811388 636:0.15811388 728:0.31622777 825:0.15811388 952:0.15811388 1031:0.15811388 1114:0.31622777 1136:0.15811388 1173:0.15811388 1326:0.15811388 1538:0.15811388 2246:0.15811388 3091:0.15811388 3690:0.31622777 3974:0.15811388 
0.4183950221656168 4:0.19245009 112:0.38490018 114:0.19245009 115:0.19245009 177:0.19245009 244:0.19245009 446:0.19245009 472:0.19245009 482:0.19245009 619:0.19245009 653:0.19245009 759:0.19245009 795:0.19245009 1048:0.19245009 1122:0.19245009 1136:0.19245009 1475:0.19245009 1518:0.19245009 1625:0.19245009 1648:0.19245009 2411:0.19245009 2645:0.19245009 3414:0.19245009 3597:0.19245009 
0.1900514830773496 1:0.18898224 4:0.18898224 18:0.18898224 31:0.56694671 35:0.18898224 57:0.18898224 97:0.18898224 259:0.18898224 312:0.18898224 321:0.18898224 471:0.18898224 619:0.18898224 648:0.18898224 1078:0.18898224 1370:0.18898224 2239:0.18898224 2274:0.18898224 2565:0.18898224 2681:0.18898224 3865:0.18898224 
0.2118934065262602 1:0.45226702 4:0.30151134 62:0.30151134 86:0.15075567 87:0.15075567 97:0.15075567 239:0.15075567 264:0.15075567 310:0.15075567 335:0.30151134 383:0.15075567 435:0.15075567 648:0.15075567 825:0.15075567 1148:0.15075567 1187:0.15075567 1216:0.30151134 1305:0.15075567 1309:0.15075567 1420:0.15075567 1474:0.15075567 1565:0.15075567 1747:0.15075567 2193:0.15075567 
0.1403142730271629 1:0.20412415 4:0.40824829 46:0.20412415 73:0.20412415 97:0.20412415 109:0.20412415 110:0.20412415 162:0.20412415 278:0.20412415 286:0.20412415 319:0.20412415 446:0.20412415 600:0.20412415 615:0.20412415 784:0.20412415 845:0.20412415 988:0.20412415 1261:0.20412415 1442:0.20412415 1838:0.20412415 3605:0.20412415 
0.310527323998178 20:0.16903085 57:0.16903085 87:0.16903085 99:0.16903085 118:0.3380617 123:0.16903085 185:0.16903085 257:0.16903085 267:0.16903085 348:0.16903085 548:0.16903085 582:0.16903085 780:0.16903085 846:0.16903085 862:0.3380617 868:0.16903085 1020:0.16903085 2039:0.16903085 2105:0.16903085 2905:0.3380617 2980:0.3380617 3675:0.16903085 4439:0.16903085 
0.05655915496549526 1:0.18731716 4:0.37463432 18:0.093658581 35:0.093658581 37:0.093658581 64:0.18731716 143:0.18731716 146:0.18731716 150:0.093658581 184:0.093658581 226:0.093658581 255:0.093658581 275:0.093658581 406:0.093658581 420:0.093658581 444:0.37463432 592:0.093658581 600:0.093658581 656:0.093658581 677:0.093658581 696:0.093658581 731:0.093658581 760:0.093658581 765:0.37463432 812:0.18731716 826:0.37463432 881:0.093658581 888:0.093658581 1242:0.093658581 1289:0.093658581 1918:0.093658581 1987:0.093658581 2166:0.093658581 2338:0.18731716 3030:0.093658581 4126:0.093658581 
0.4099790942813468 4:0.16963779 10:0.084818893 31:0.84818893 33:0.16963779 73:0.16963779 87:0.084818893 112:0.25445668 150:0.084818893 215:0.084818893 250:0.084818893 288:0.084818893 375:0.084818893 440:0.084818893 489:0.084818893 786:0.084818893 791:0.084818893 825:0.084818893 834:0.084818893 989:0.084818893 1251:0.084818893 1557:0.084818893 2620:0.084818893 4529:0.084818893 
0.09225777778882366 1:0.12909944 28:0.25819889 31:0.64549722 86:0.12909944 120:0.12909944 176:0.12909944 216:0.12909944 278:0.12909944 335:0.12909944 469:0.12909944 533:0.12909944 620:0.12909944 695:0.12909944 859:0.25819889 955:0.12909944 1151:0.12909944 1175:0.12909944 1179:0.12909944 1292:0.12909944 1431:0.12909944 1497:0.12909944 1516:0.12909944 1562:0.12909944 1799:0.12909944 2100:0.12909944 2264:0.12909944 3651:0.12909944 3912:0.12909944 4448:0.12909944 4547:0.12909944 
0.9071875830206015 4:0.28571429 65:0.14285714 174:0.14285714 291:0.28571429 317:0.14285714 359:0.14285714 473:0.14285714 546:0.14285714 556:0.14285714 558:0.14285714 644:0.14285714 660:0.14285714 798:0.14285714 851:0.14285714 956:0.14285714 1041:0.14285714 1076:0.14285714 1143:0.14285714 1177:0.14285714 1218:0.14285714 1308:0.28571429 1455:0.14285714 1524:0.28571429 1538:0.14285714 1583:0.14285714 1645:0.14285714 1833:0.28571429 2160:0.14285714 2266:0.14285714 2567:0.14285714 2714:0.14285714 2885:0.14285714 3692:0.14285714 3907:0.14285714 
0.8158024172682009 28:0.4472136 31:0.2981424 97:0.2981424 134:0.1490712 156:0.1490712 160:0.1490712 176:0.1490712 213:0.1490712 214:0.1490712 229:0.1490712 278:0.1490712 705:0.1490712 739:0.1490712 769:0.1490712 932:0.1490712 1395:0.4472136 1478:0.1490712 2676:0.1490712 2749:0.1490712 2771:0.1490712 3966:0.1490712 4175:0.1490712 4185:0.1490712 
0.9290902950458666 31:0.68041382 82:0.13608276 87:0.13608276 89:0.13608276 106:0.13608276 137:0.27216553 147:0.27216553 227:0.13608276 291:0.27216553 431:0.13608276 465:0.13608276 791:0.13608276 1046:0.13608276 1455:0.27216553 1488:0.13608276 1761:0.13608276 1942:0.13608276 2981:0.13608276 
1 28:0.61237244 31:0.20412415 186:0.20412415 247:0.20412415 265:0.20412415 696:0.20412415 838:0.20412415 965:0.20412415 1391:0.20412415 2051:0.20412415 2148:0.20412415 3149:0.20412415 3385:0.20412415 3415:0.20412415 3470:0.20412415 4453:0.20412415 
0.4317632527795767 31:0.40824829 113:0.20412415 178:0.20412415 185:0.40824829 186:0.20412415 375:0.20412415 377:0.20412415 425:0.20412415 489:0.20412415 509:0.20412415 643:0.20412415 735:0.20412415 1235:0.20412415 1316:0.20412415 2366:0.20412415 2493:0.20412415 3520:0.20412415 4230:0.20412415 
0.5085110662716708 1:0.19611614 4:0.58834841 18:0.19611614 28:0.39223227 194:0.19611614 335:0.19611614 342:0.19611614 399:0.19611614 1035:0.19611614 1425:0.19611614 1514:0.19611614 2147:0.19611614 2658:0.19611614 2789:0.19611614 2999:0.19611614 
0.06277236534253351 4:0.20851441 28:0.41702883 31:0.41702883 89:0.20851441 200:0.20851441 235:0.20851441 296:0.20851441 519:0.20851441 527:0.20851441 870:0.20851441 886:0.20851441 890:0.20851441 1030:0.20851441 1069:0.20851441 1216:0.20851441 2413:0.20851441 4143:0.20851441 
0.1269187532858145 1:0.14433757 28:0.4330127 31:0.4330127 110:0.28867513 186:0.14433757 188:0.14433757 212:0.14433757 274:0.14433757 275:0.14433757 286:0.14433757 370:0.14433757 399:0.14433757 509:0.14433757 818:0.14433757 842:0.14433757 859:0.14433757 1046:0.14433757 1090:0.14433757 1292:0.14433757 1457:0.14433757 1676:0.14433757 1735:0.14433757 1801:0.14433757 2919:0.14433757 2981:0.14433757 3309:0.14433757 3485:0.14433757 3694:0.14433757 4099:0.14433757 
0.5359106230001237 4:0.15075567 11:0.15075567 31:0.30151134 87:0.30151134 111:0.15075567 147:0.15075567 214:0.15075567 216:0.15075567 250:0.15075567 288:0.15075567 375:0.15075567 405:0.30151134 436:0.15075567 556:0.15075567 584:0.15075567 773:0.15075567 825:0.15075567 937:0.30151134 960:0.15075567 1036:0.15075567 1136:0.15075567 1158:0.15075567 1399:0.15075567 1429:0.15075567 1591:0.15075567 1612:0.15075567 1656:0.15075567 2017:0.30151134 4197:0.15075567 
0.552144440442263 4:0.19245009 31:0.57735027 50:0.19245009 150:0.19245009 177:0.19245009 326:0.19245009 346:0.38490018 850:0.19245009 1019:0.19245009 1116:0.19245009 1323:0.19245009 1694:0.19245009 1909:0.19245009 2183:0.19245009 2210:0.19245009 2781:0.19245009 
1 4:0.13245324 31:0.13245324 51:0.13245324 57:0.13245324 61:0.13245324 129:0.79471941 134:0.26490647 213:0.13245324 215:0.13245324 229:0.13245324 265:0.13245324 273:0.13245324 312:0.13245324 595:0.13245324 1206:0.13245324 1782:0.13245324 2034:0.13245324 3945:0.13245324 4562:0.13245324 
0.7968887014631831 4:0.21821789 72:0.43643578 143:0.21821789 212:0.21821789 250:0.43643578 268:0.21821789 273:0.21821789 276:0.21821789 388:0.21821789 594:0.21821789 810:0.21821789 1139:0.21821789 2145:0.21821789 2385:0.21821789 4520:0.21821789 
1 28:0.76249285 31:0.15249857 54:0.15249857 65:0.15249857 73:0.15249857 149:0.30499714 293:0.15249857 314:0.15249857 512:0.15249857 648:0.15249857 933:0.15249857 1177:0.15249857 1509:0.15249857 1693:0.15249857 1767:0.15249857 2031:0.15249857 
0.5012611340937859 31:0.64888568 91:0.16222142 111:0.16222142 201:0.16222142 239:0.16222142 264:0.16222142 297:0.16222142 339:0.16222142 450:0.16222142 455:0.16222142 567:0.16222142 882:0.16222142 889:0.16222142 946:0.16222142 1011:0.16222142 1512:0.16222142 1549:0.16222142 1612:0.16222142 1669:0.16222142 2374:0.16222142 2432:0.16222142 2987:0.16222142 3168:0.16222142 
0.6345913642702105 4:0.2 13:0.2 16:0.2 111:0.2 114:0.2 134:0.2 184:0.2 187:0.2 359:0.2 386:0.2 436:0.2 565:0.2 600:0.2 718:0.2 825:0.4 943:0.2 1002:0.2 1136:0.2 1318:0.2 1437:0.2 2913:0.2 3491:0.2 
0.5253281367164828 1:0.12598816 4:0.12598816 18:0.12598816 28:0.75592895 65:0.12598816 72:0.25197632 89:0.12598816 106:0.12598816 177:0.12598816 243:0.12598816 259:0.12598816 336:0.12598816 388:0.12598816 733:0.25197632 786:0.12598816 1264:0.12598816 1424:0.12598816 1676:0.12598816 1771:0.12598816 1914:0.12598816 1926:0.12598816 2901:0.12598816 
0.5720988660286025 38:0.21821789 72:0.21821789 82:0.21821789 89:0.21821789 118:0.21821789 185:0.21821789 202:0.21821789 405:0.21821789 527:0.21821789 671:0.21821789 739:0.21821789 1216:0.21821789 1264:0.21821789 1521:0.21821789 1737:0.21821789 1838:0.21821789 2252:0.21821789 2996:0.21821789 3421:0.21821789 3680:0.21821789 4453:0.21821789 
0.9139973931160831 61:0.26726124 62:0.26726124 65:0.26726124 105:0.26726124 223:0.26726124 519:0.26726124 562:0.26726124 600:0.26726124 789:0.26726124 1028:0.26726124 1216:0.26726124 1218:0.26726124 1672:0.26726124 2347:0.26726124 
0.5127287906638682 4:0.38100038 18:0.12700013 31:0.50800051 72:0.12700013 83:0.12700013 120:0.12700013 124:0.12700013 160:0.12700013 229:0.12700013 350:0.12700013 430:0.12700013 459:0.12700013 525:0.12700013 528:0.12700013 600:0.12700013 638:0.12700013 713:0.12700013 846:0.12700013 874:0.12700013 1124:0.12700013 1152:0.12700013 1183:0.12700013 1206:0.12700013 1207:0.25400025 1644:0.25400025 2374:0.12700013 2739:0.12700013 3132:0.12700013 3376:0.12700013 3949:0.12700013 4402:0.12700013 4519:0.12700013 4523:0.12700013 
0.4745540695931214 4:0.75377836 18:0.30151134 51:0.15075567 56:0.15075567 354:0.15075567 424:0.15075567 431:0.15075567 734:0.15075567 955:0.15075567 972:0.15075567 988:0.15075567 1491:0.15075567 1556:0.15075567 1643:0.15075567 1649:0.15075567 2015:0.15075567 2034:0.15075567 
1 4:0.16439899 28:0.65759595 65:0.16439899 112:0.32879797 194:0.16439899 301:0.16439899 310:0.16439899 326:0.16439899 552:0.16439899 690:0.16439899 893:0.16439899 970:0.16439899 1204:0.16439899 1221:0.16439899 1282:0.16439899 1447:0.16439899 1989:0.16439899 3343:0.16439899 4220:0.16439899 
0.2044327791278983 4:0.19611614 31:0.39223227 87:0.19611614 146:0.19611614 181:0.19611614 195:0.19611614 226:0.19611614 257:0.19611614 354:0.19611614 444:0.19611614 545:0.19611614 648:0.19611614 651:0.19611614 653:0.19611614 712:0.39223227 850:0.19611614 1104:0.19611614 2268:0.19611614 3155:0.19611614 4106:0.19611614 
0.03636935218030619 4:0.15430335 18:0.3086067 31:0.46291005 151:0.15430335 176:0.15430335 188:0.15430335 359:0.15430335 439:0.15430335 472:0.15430335 549:0.15430335 611:0.15430335 645:0.15430335 695:0.15430335 770:0.15430335 943:0.15430335 976:0.15430335 1103:0.15430335 1437:0.15430335 1441:0.15430335 1470:0.15430335 1534:0.15430335 1713:0.15430335 2412:0.15430335 2697:0.15430335 3280:0.3086067 3596:0.15430335 4090:0.15430335 4443:0.15430335 
0.1311552126926313 1:0.18898224 18:0.18898224 31:0.37796447 87:0.18898224 111:0.18898224 114:0.18898224 146:0.18898224 216:0.18898224 229:0.18898224 261:0.18898224 699:0.18898224 759:0.18898224 1484:0.37796447 1524:0.18898224 1799:0.18898224 1833:0.18898224 3142:0.18898224 3171:0.18898224 3457:0.37796447 
0.09151266317032308 1:0.21320072 72:0.21320072 113:0.21320072 152:0.42640143 186:0.21320072 221:0.21320072 247:0.21320072 264:0.21320072 268:0.21320072 282:0.21320072 341:0.21320072 416:0.21320072 588:0.21320072 595:0.21320072 902:0.21320072 951:0.21320072 1186:0.21320072 1874:0.21320072 3059:0.21320072 
0.09894505871039523 1:0.21320072 4:0.42640143 31:0.42640143 111:0.10660036 114:0.10660036 146:0.10660036 156:0.21320072 229:0.10660036 291:0.31980107 444:0.21320072 459:0.10660036 488:0.10660036 549:0.10660036 600:0.10660036 608:0.10660036 613:0.10660036 702:0.21320072 796:0.10660036 864:0.10660036 924:0.10660036 943:0.10660036 952:0.10660036 977:0.10660036 1002:0.10660036 1164:0.10660036 1233:0.10660036 1398:0.21320072 1437:0.10660036 1441:0.10660036 1649:0.10660036 1837:0.10660036 2581:0.10660036 3281:0.10660036 3650:0.10660036 4531:0.10660036 
0.2998794510531292 4:0.18569534 18:0.18569534 28:0.18569534 31:0.37139068 137:0.18569534 208:0.18569534 217:0.18569534 265:0.18569534 267:0.18569534 430:0.18569534 517:0.18569534 583:0.18569534 660:0.18569534 759:0.18569534 847:0.18569534 1077:0.18569534 1292:0.18569534 1335:0.18569534 1877:0.37139068 2016:0.18569534 3332:0.18569534 3440:0.18569534 4138:0.18569534 
0.03706230912230648 1:0.40451992 28:0.40451992 31:0.26967994 33:0.13483997 37:0.13483997 121:0.13483997 162:0.13483997 213:0.13483997 227:0.13483997 270:0.13483997 309:0.13483997 392:0.13483997 405:0.26967994 478:0.13483997 564:0.13483997 596:0.13483997 600:0.13483997 636:0.13483997 682:0.13483997 751:0.13483997 805:0.13483997 872:0.13483997 956:0.26967994 1041:0.13483997 1070:0.13483997 1136:0.13483997 1142:0.13483997 1423:0.13483997 1849:0.13483997 4489:0.13483997 
0.165121194349125 4:0.16012815 18:0.16012815 28:0.16012815 62:0.16012815 110:0.16012815 160:0.16012815 187:0.16012815 194:0.16012815 239:0.16012815 276:0.48038446 291:0.32025631 331:0.16012815 386:0.16012815 388:0.16012815 426:0.16012815 449:0.16012815 562:0.16012815 620:0.16012815 647:0.16012815 882:0.16012815 1085:0.16012815 1136:0.16012815 1279:0.16012815 1390:0.16012815 1524:0.16012815 1594:0.16012815 1764:0.16012815 1833:0.16012815 
0.07463495034119437 18:0.19245009 28:0.38490018 31:0.19245009 83:0.19245009 92:0.19245009 105:0.38490018 123:0.38490018 143:0.19245009 346:0.19245009 567:0.38490018 860:0.19245009 972:0.19245009 1057:0.19245009 2455:0.19245009 4423:0.19245009 
0.3286485692701459 1:0.17407766 28:0.34815531 31:0.17407766 62:0.17407766 137:0.17407766 193:0.17407766 272:0.17407766 287:0.17407766 323:0.17407766 336:0.17407766 356:0.17407766 527:0.17407766 583:0.17407766 589:0.17407766 608:0.17407766 648:0.17407766 890:0.17407766 1089:0.17407766 1160:0.17407766 1395:0.52223297 1483:0.17407766 1775:0.17407766 
0.8013025072306126 4:0.16439899 11:0.32879797 87:0.16439899 156:0.16439899 176:0.16439899 188:0.16439899 224:0.16439899 226:0.16439899 268:0.32879797 307:0.16439899 317:0.32879797 480:0.16439899 600:0.16439899 798:0.16439899 955:0.16439899 974:0.16439899 976:0.16439899 1136:0.16439899 1281:0.16439899 1990:0.16439899 2178:0.16439899 2221:0.16439899 3339:0.16439899 3692:0.32879797 4306:0.16439899 
0.3898994461842171 4:0.15075567 28:0.15075567 31:0.75377836 37:0.15075567 83:0.15075567 87:0.15075567 174:0.15075567 198:0.15075567 268:0.15075567 588:0.15075567 595:0.15075567 999:0.15075567 1041:0.15075567 1136:0.15075567 1139:0.15075567 1957:0.15075567 2200:0.15075567 2676:0.15075567 3974:0.15075567 4146:0.15075567 
1 4:0.32879797 31:0.65759595 184:0.16439899 196:0.16439899 250:0.16439899 261:0.16439899 270:0.16439899 407:0.16439899 763:0.16439899 784:0.16439899 847:0.16439899 1084:0.16439899 1339:0.16439899 1515:0.16439899 1542:0.16439899 2624:0.16439899 3973:0.16439899 4194:0.16439899 4266:0.16439899 
1 1:0.22941573 18:0.22941573 33:0.22941573 46:0.45883147 120:0.22941573 151:0.22941573 255:0.22941573 326:0.22941573 439:0.22941573 639:0.22941573 875:0.22941573 1292:0.22941573 1528:0.22941573 1987:0.22941573 2470:0.22941573 3172:0.22941573 
0.5904236735260138 1:0.21821789 4:0.21821789 7:0.21821789 21:0.21821789 31:0.21821789 92:0.21821789 118:0.21821789 150:0.21821789 201:0.21821789 291:0.21821789 307:0.43643578 319:0.21821789 377:0.21821789 533:0.21821789 600:0.21821789 1220:0.21821789 1926:0.21821789 2295:0.21821789 
1 4:0.52223297 18:0.17407766 62:0.17407766 111:0.17407766 137:0.17407766 151:0.17407766 153:0.34815531 227:0.17407766 229:0.17407766 234:0.17407766 561:0.17407766 600:0.17407766 709:0.17407766 1196:0.17407766 1437:0.17407766 1441:0.17407766 2065:0.17407766 2088:0.17407766 2352:0.17407766 2598:0.17407766 3408:0.17407766 4067:0.17407766 
0.8963552751786802 4:0.10206207 18:0.10206207 28:0.10206207 31:0.71443451 65:0.10206207 87:0.10206207 91:0.10206207 105:0.10206207 184:0.10206207 215:0.20412415 227:0.10206207 241:0.10206207 265:0.10206207 311:0.10206207 323:0.10206207 334:0.10206207 388:0.10206207 447:0.10206207 450:0.10206207 547:0.10206207 600:0.20412415 647:0.10206207 707:0.10206207 717:0.10206207 763:0.10206207 777:0.10206207 834:0.10206207 877:0.10206207 1048:0.10206207 1136:0.10206207 1273:0.10206207 1335:0.10206207 1529:0.10206207 1878:0.10206207 1890:0.10206207 1914:0.10206207 2110:0.10206207 2506:0.10206207 2924:0.10206207 3596:0.10206207 3649:0.10206207 3667:0.10206207 
0.4281018131854043 4:0.28571429 31:0.57142857 62:0.14285714 147:0.14285714 244:0.14285714 304:0.28571429 308:0.14285714 317:0.14285714 473:0.14285714 480:0.14285714 768:0.14285714 783:0.14285714 809:0.14285714 1377:0.28571429 1422:0.14285714 1524:0.14285714 1808:0.14285714 1833:0.14285714 1889:0.14285714 1990:0.14285714 2340:0.14285714 2348:0.14285714 3329:0.14285714 3688:0.14285714 4520:0.14285714 
0.859287809458388 4:0.24253563 110:0.24253563 174:0.24253563 278:0.24253563 309:0.24253563 472:0.24253563 556:0.24253563 822:0.24253563 961:0.24253563 1111:0.24253563 1196:0.24253563 1219:0.24253563 1221:0.24253563 1261:0.24253563 1447:0.24253563 1646:0.24253563 2258:0.24253563 
0.7479361050824621 4:0.14002801 13:0.14002801 51:0.14002801 87:0.14002801 91:0.14002801 97:0.14002801 111:0.28005602 150:0.14002801 160:0.14002801 176:0.14002801 250:0.14002801 257:0.14002801 317:0.14002801 335:0.14002801 337:0.14002801 359:0.14002801 561:0.14002801 600:0.28005602 619:0.14002801 695:0.14002801 877:0.14002801 889:0.14002801 1065:0.14002801 1112:0.14002801 1175:0.14002801 1240:0.14002801 1308:0.14002801 1437:0.14002801 1441:0.14002801 1521:0.14002801 1534:0.14002801 1559:0.14002801 1562:0.14002801 1607:0.14002801 1627:0.14002801 1835:0.14002801 1870:0.14002801 2000:0.14002801 2456:0.14002801 3011:0.14002801 3147:0.14002801 3692:0.14002801 3871:0.14002801 4022:0.14002801 4387:0.14002801 
0.2068123786025103 1:0.19611614 31:0.58834841 59:0.39223227 62:0.19611614 203:0.19611614 388:0.19611614 518:0.19611614 909:0.19611614 1433:0.19611614 2193:0.19611614 3280:0.39223227 3635:0.19611614 
1 1:0.1796053 4:0.3592106 21:0.1796053 62:0.1796053 116:0.1796053 121:0.1796053 129:0.53881591 293:0.1796053 709:0.1796053 718:0.1796053 746:0.1796053 864:0.1796053 1237:0.1796053 1275:0.1796053 2036:0.1796053 2225:0.1796053 3673:0.1796053 4131:0.1796053 4133:0.1796053 4327:0.1796053 
0.6764136305988261 4:0.33333333 18:0.16666667 31:0.16666667 193:0.16666667 224:0.33333333 515:0.16666667 640:0.16666667 1062:0.33333333 1308:0.33333333 1359:0.16666667 1608:0.16666667 1695:0.16666667 1701:0.16666667 1835:0.16666667 1911:0.16666667 2052:0.33333333 2649:0.16666667 3081:0.16666667 3513:0.16666667 4079:0.16666667 4200:0.16666667 
1 1:0.08304548 4:0.08304548 21:0.08304548 31:0.33218192 33:0.08304548 69:0.08304548 121:0.08304548 137:0.08304548 150:0.08304548 216:0.08304548 270:0.08304548 283:0.08304548 293:0.08304548 319:0.08304548 392:0.16609096 455:0.08304548 515:0.08304548 729:0.08304548 885:0.08304548 1226:0.08304548 2497:0.08304548 2791:0.08304548 3160:0.08304548 3280:0.8304548 3451:0.08304548 4015:0.08304548 4157:0.08304548 4546:0.08304548 
0.03012003880947019 28:0.2 31:0.6 57:0.2 65:0.2 99:0.2 184:0.2 239:0.2 262:0.2 410:0.2 548:0.2 986:0.2 1217:0.2 1399:0.2 1494:0.2 1495:0.2 3445:0.2 4132:0.2 
0.4955934060363516 4:0.26726124 28:0.26726124 31:0.53452248 91:0.13363062 212:0.13363062 307:0.26726124 375:0.13363062 402:0.13363062 487:0.13363062 531:0.13363062 600:0.13363062 620:0.13363062 715:0.13363062 943:0.13363062 961:0.13363062 973:0.13363062 976:0.13363062 1024:0.13363062 1120:0.13363062 1217:0.13363062 1441:0.13363062 1530:0.13363062 1987:0.13363062 2048:0.26726124 2776:0.13363062 3140:0.13363062 3430:0.13363062 3998:0.13363062 4013:0.13363062 
0.7822505227599012 1:0.13245324 4:0.13245324 11:0.26490647 28:0.39735971 31:0.52981294 97:0.13245324 105:0.13245324 160:0.13245324 187:0.13245324 198:0.13245324 213:0.13245324 267:0.13245324 317:0.13245324 359:0.13245324 473:0.13245324 600:0.13245324 739:0.13245324 881:0.13245324 979:0.13245324 1003:0.13245324 1112:0.13245324 1114:0.13245324 1521:0.13245324 1627:0.13245324 1788:0.13245324 2153:0.13245324 3692:0.26490647 4226:0.13245324 
0.3152351012102069 31:0.55708601 33:0.18569534 65:0.18569534 78:0.18569534 176:0.18569534 194:0.18569534 274:0.18569534 284:0.37139068 547:0.18569534 595:0.18569534 657:0.18569534 705:0.18569534 728:0.18569534 938:0.18569534 1525:0.18569534 1616:0.18569534 2087:0.18569534 4137:0.18569534 
1 31:0.71842121 40:0.1796053 186:0.1796053 314:0.1796053 354:0.1796053 402:0.1796053 453:0.1796053 459:0.1796053 546:0.1796053 972:0.1796053 982:0.1796053 1092:0.1796053 1180:0.1796053 1263:0.1796053 1530:0.1796053 1847:0.1796053 
0.5921010763510113 4:0.45226702 28:0.30151134 31:0.30151134 87:0.15075567 201:0.15075567 213:0.15075567 229:0.15075567 234:0.30151134 402:0.30151134 446:0.15075567 472:0.15075567 549:0.15075567 556:0.15075567 600:0.15075567 603:0.15075567 707:0.15075567 796:0.15075567 875:0.15075567 943:0.15075567 1024:0.15075567 1512:0.15075567 1525:0.15075567 2359:0.15075567 2374:0.15075567 
0.9528293165205788 4:0.16222142 16:0.16222142 18:0.32444284 65:0.16222142 83:0.16222142 87:0.16222142 110:0.16222142 119:0.16222142 267:0.16222142 337:0.16222142 430:0.16222142 512:0.16222142 573:0.32444284 695:0.16222142 750:0.16222142 836:0.48666426 881:0.16222142 973:0.16222142 1038:0.16222142 1686:0.16222142 2072:0.16222142 2459:0.16222142 3661:0.16222142 4523:0.16222142 
0.1210627827516507 21:0.25819889 51:0.25819889 62:0.25819889 89:0.25819889 174:0.25819889 176:0.25819889 239:0.25819889 346:0.25819889 600:0.25819889 1052:0.25819889 1124:0.25819889 1389:0.25819889 1507:0.25819889 2662:0.25819889 3700:0.25819889 
0.1353452698157654 4:0.34299717 28:0.51449576 112:0.34299717 115:0.17149859 184:0.17149859 243:0.17149859 307:0.17149859 309:0.17149859 322:0.17149859 436:0.17149859 453:0.17149859 469:0.17149859 619:0.17149859 657:0.17149859 1050:0.17149859 1311:0.17149859 1326:0.17149859 1366:0.17149859 2265:0.17149859 2722:0.17149859 
1 16:1 
0.6275142592792381 51:0.14142136 65:0.14142136 112:0.42426407 123:0.14142136 162:0.14142136 216:0.14142136 257:0.14142136 277:0.14142136 288:0.14142136 326:0.14142136 331:0.14142136 335:0.14142136 346:0.14142136 546:0.14142136 553:0.14142136 708:0.14142136 847:0.14142136 989:0.14142136 1073:0.14142136 1136:0.14142136 1200:0.14142136 1292:0.14142136 1416:0.14142136 1504:0.14142136 1687:0.14142136 1751:0.14142136 2201:0.14142136 2224:0.14142136 2364:0.14142136 2490:0.14142136 3003:0.14142136 3438:0.14142136 4062:0.14142136 4397:0.42426407 
0.5310246278816719 35:0.15617376 50:0.31234752 69:0.15617376 83:0.15617376 110:0.15617376 160:0.15617376 230:0.15617376 314:0.15617376 335:0.15617376 336:0.15617376 375:0.15617376 377:0.15617376 416:0.15617376 424:0.31234752 425:0.15617376 449:0.15617376 533:0.15617376 537:0.15617376 582:0.15617376 600:0.15617376 636:0.15617376 659:0.15617376 674:0.15617376 695:0.15617376 1024:0.15617376 1323:0.15617376 1458:0.15617376 1786:0.15617376 1846:0.15617376 2035:0.15617376 2263:0.15617376 2750:0.15617376 2900:0.15617376 4120:0.15617376 4510:0.15617376 
0.6176066441803039 51:0.19611614 86:0.19611614 174:0.19611614 178:0.19611614 224:0.19611614 226:0.19611614 297:0.19611614 331:0.19611614 354:0.19611614 416:0.19611614 429:0.19611614 444:0.39223227 542:0.19611614 588:0.19611614 600:0.19611614 648:0.19611614 674:0.19611614 750:0.19611614 765:0.19611614 891:0.19611614 2664:0.19611614 2682:0.19611614 4422:0.19611614 
0.5702361901033523 1:0.080321933 4:0.32128773 18:0.080321933 20:0.080321933 28:0.080321933 31:0.80321933 65:0.080321933 91:0.080321933 99:0.080321933 147:0.080321933 223:0.080321933 328:0.080321933 405:0.16064387 413:0.080321933 450:0.080321933 512:0.080321933 541:0.080321933 556:0.080321933 589:0.080321933 602:0.080321933 777:0.080321933 779:0.080321933 888:0.080321933 905:0.080321933 915:0.080321933 1074:0.080321933 1142:0.080321933 1176:0.080321933 1208:0.080321933 1912:0.080321933 2475:0.080321933 3148:0.080321933 3357:0.080321933 3447:0.080321933 3658:0.080321933 3659:0.080321933 4136:0.080321933 4528:0.080321933 
0.1644651714993508 4:0.32349832 21:0.21566555 46:0.10783277 69:0.10783277 109:0.10783277 149:0.43133109 187:0.10783277 195:0.10783277 258:0.10783277 265:0.10783277 270:0.10783277 392:0.32349832 452:0.21566555 533:0.21566555 600:0.10783277 902:0.10783277 917:0.10783277 924:0.10783277 1051:0.10783277 1091:0.10783277 1171:0.10783277 1243:0.10783277 1252:0.10783277 1363:0.10783277 1469:0.32349832 1638:0.10783277 1873:0.10783277 1957:0.10783277 2497:0.10783277 2894:0.21566555 3000:0.10783277 3689:0.10783277 3861:0.10783277 3983:0.10783277 4236:0.10783277 
0.2793622246617399 4:0.57353933 20:0.11470787 28:0.3441236 31:0.11470787 50:0.11470787 65:0.11470787 116:0.11470787 150:0.11470787 160:0.11470787 213:0.11470787 229:0.11470787 247:0.11470787 286:0.11470787 291:0.11470787 464:0.11470787 473:0.11470787 540:0.11470787 661:0.11470787 745:0.11470787 835:0.22941573 837:0.11470787 893:0.22941573 913:0.11470787 921:0.11470787 1206:0.11470787 1241:0.11470787 1364:0.11470787 1426:0.11470787 1564:0.11470787 1566:0.11470787 2018:0.11470787 2027:0.11470787 2161:0.11470787 2597:0.11470787 2954:0.11470787 3866:0.11470787 4527:0.11470787 4540:0.11470787 
0.07734759732502951 4:0.20851441 31:0.62554324 69:0.20851441 174:0.20851441 211:0.20851441 246:0.20851441 261:0.20851441 305:0.20851441 885:0.20851441 986:0.20851441 1124:0.20851441 1563:0.20851441 1644:0.20851441 1709:0.20851441 2606:0.20851441 
1 21:0.24253563 97:0.24253563 293:0.24253563 429:0.24253563 457:0.24253563 600:0.24253563 698:0.24253563 746:0.24253563 798:0.24253563 941:0.24253563 964:0.24253563 1010:0.24253563 1070:0.24253563 1275:0.24253563 2030:0.24253563 3302:0.24253563 3863:0.24253563 
0.04138270368265666 21:0.29488391 28:0.29488391 31:0.29488391 46:0.29488391 65:0.14744196 134:0.14744196 215:0.14744196 235:0.14744196 263:0.14744196 313:0.14744196 350:0.14744196 406:0.14744196 546:0.14744196 600:0.14744196 619:0.14744196 648:0.14744196 767:0.14744196 779:0.14744196 784:0.14744196 885:0.14744196 888:0.14744196 1049:0.14744196 1069:0.29488391 1651:0.14744196 1671:0.14744196 1860:0.14744196 1935:0.14744196 2623:0.14744196 3151:0.14744196 3700:0.14744196 3989:0.14744196 
0.2351097303939168 1:0.079808688 4:0.55866082 18:0.15961738 20:0.079808688 28:0.15961738 31:0.55866082 65:0.15961738 87:0.15961738 92:0.079808688 105:0.079808688 113:0.079808688 160:0.079808688 185:0.079808688 187:0.079808688 213:0.079808688 229:0.079808688 235:0.079808688 275:0.079808688 276:0.079808688 291:0.23942607 425:0.079808688 525:0.079808688 600:0.079808688 620:0.079808688 634:0.15961738 955:0.079808688 1088:0.079808688 1390:0.079808688 1447:0.079808688 2008:0.079808688 2056:0.079808688 2660:0.079808688 2785:0.079808688 2788:0.079808688 2987:0.079808688 3147:0.079808688 4013:0.079808688 4417:0.079808688 
1 188:0.5 274:0.5 509:0.5 679:0.5 
0.7018736408936406 1:0.24253563 4:0.24253563 21:0.24253563 26:0.24253563 121:0.24253563 137:0.24253563 147:0.24253563 307:0.24253563 402:0.24253563 429:0.24253563 443:0.24253563 490:0.24253563 807:0.24253563 1084:0.24253563 1525:0.24253563 1538:0.24253563 2758:0.24253563 
0.05654728167582354 4:0.43643578 28:0.21821789 31:0.43643578 97:0.21821789 168:0.21821789 195:0.21821789 216:0.21821789 275:0.21821789 415:0.21821789 464:0.21821789 842:0.21821789 920:0.21821789 980:0.21821789 2055:0.21821789 2616:0.21821789 
0.3105418400598272 20:0.20851441 54:0.41702883 78:0.20851441 121:0.62554324 185:0.20851441 733:0.20851441 922:0.20851441 989:0.20851441 1049:0.20851441 1681:0.20851441 1922:0.20851441 4078:0.20851441 
0.1065093319598725 31:0.16903085 46:0.3380617 51:0.16903085 54:0.50709255 147:0.16903085 300:0.50709255 316:0.16903085 386:0.16903085 453:0.16903085 455:0.16903085 546:0.16903085 574:0.16903085 1319:0.16903085 1345:0.16903085 2897:0.16903085 4027:0.16903085 
1 1:0.26832816 13:0.089442719 31:0.71554175 51:0.089442719 87:0.089442719 133:0.17888544 153:0.089442719 216:0.089442719 250:0.089442719 291:0.089442719 370:0.089442719 402:0.089442719 480:0.089442719 791:0.089442719 796:0.089442719 817:0.089442719 875:0.089442719 889:0.089442719 943:0.17888544 976:0.089442719 1105:0.089442719 1447:0.089442719 1574:0.17888544 1711:0.17888544 1845:0.089442719 1991:0.089442719 2160:0.26832816 2774:0.089442719 3147:0.089442719 3513:0.089442719 3642:0.089442719 4405:0.089442719 4501:0.089442719 4514:0.089442719 
1 1:0.12262787 4:0.12262787 21:0.061313934 28:0.91970901 61:0.061313934 83:0.061313934 87:0.061313934 99:0.061313934 186:0.061313934 198:0.061313934 206:0.061313934 227:0.061313934 235:0.061313934 258:0.061313934 263:0.061313934 268:0.061313934 353:0.061313934 525:0.061313934 555:0.061313934 590:0.061313934 648:0.061313934 999:0.061313934 1031:0.061313934 1060:0.061313934 1388:0.061313934 1428:0.061313934 1649:0.061313934 1747:0.061313934 2192:0.061313934 2581:0.061313934 2589:0.061313934 2944:0.061313934 3148:0.061313934 3397:0.061313934 3563:0.061313934 4531:0.061313934 
0.2728368065727658 31:0.68599434 38:0.17149859 82:0.17149859 91:0.17149859 92:0.17149859 162:0.17149859 264:0.17149859 312:0.17149859 348:0.17149859 350:0.17149859 431:0.17149859 648:0.17149859 785:0.17149859 851:0.17149859 858:0.17149859 890:0.17149859 1231:0.17149859 2054:0.17149859 2893:0.17149859 
0.1557832820536553 1:0.15617376 4:0.15617376 28:0.15617376 31:0.62469505 87:0.15617376 114:0.15617376 186:0.15617376 201:0.15617376 226:0.15617376 388:0.15617376 399:0.15617376 573:0.31234752 759:0.15617376 949:0.15617376 1027:0.15617376 1447:0.15617376 1483:0.15617376 1524:0.15617376 1532:0.15617376 1833:0.15617376 1951:0.15617376 2187:0.15617376 4221:0.15617376 
0.4631689457633945 4:0.50800051 37:0.12700013 57:0.12700013 87:0.12700013 112:0.12700013 115:0.12700013 137:0.12700013 156:0.12700013 170:0.12700013 175:0.12700013 186:0.12700013 375:0.12700013 449:0.12700013 489:0.12700013 541:0.12700013 603:0.12700013 634:0.12700013 671:0.12700013 759:0.25400025 768:0.12700013 778:0.12700013 825:0.12700013 850:0.12700013 874:0.12700013 1136:0.12700013 1198:0.12700013 1338:0.12700013 1394:0.12700013 1397:0.12700013 1431:0.12700013 1517:0.12700013 2682:0.12700013 3568:0.12700013 3636:0.12700013 3659:0.38100038 4178:0.12700013 
0.02278575731001614 4:0.45226702 18:0.15075567 31:0.60302269 57:0.15075567 62:0.15075567 213:0.15075567 227:0.15075567 229:0.15075567 307:0.15075567 406:0.15075567 516:0.15075567 671:0.15075567 847:0.15075567 1113:0.15075567 1429:0.15075567 1433:0.15075567 1446:0.15075567 1544:0.15075567 2152:0.15075567 2164:0.15075567 4439:0.15075567 
0.6750855754118138 4:0.19611614 28:0.19611614 31:0.58834841 110:0.19611614 312:0.19611614 358:0.19611614 377:0.19611614 400:0.19611614 469:0.19611614 509:0.19611614 836:0.19611614 949:0.19611614 1201:0.19611614 1286:0.19611614 1339:0.19611614 1756:0.19611614 1870:0.19611614 2879:0.19611614 
1 1:0.10369517 4:0.10369517 28:0.93325653 78:0.10369517 137:0.10369517 215:0.10369517 289:0.10369517 442:0.10369517 699:0.10369517 1409:0.10369517 1577:0.10369517 2733:0.10369517 3655:0.10369517 
0.4255362492412569 4:0.32551538 18:0.081378846 20:0.081378846 31:0.81378846 78:0.081378846 97:0.081378846 110:0.081378846 143:0.081378846 268:0.081378846 272:0.081378846 287:0.081378846 336:0.081378846 370:0.081378846 413:0.081378846 425:0.081378846 526:0.081378846 588:0.081378846 606:0.081378846 725:0.081378846 789:0.081378846 860:0.081378846 1119:0.081378846 1148:0.081378846 1277:0.081378846 1319:0.081378846 1333:0.081378846 1437:0.081378846 1441:0.081378846 1457:0.081378846 1666:0.081378846 2190:0.081378846 2481:0.16275769 2618:0.081378846 3653:0.081378846 
0.5202064911018925 1:0.17817416 4:0.089087081 18:0.089087081 31:0.71269665 50:0.089087081 87:0.17817416 146:0.089087081 150:0.089087081 187:0.089087081 201:0.089087081 249:0.089087081 277:0.089087081 286:0.089087081 289:0.089087081 405:0.089087081 415:0.089087081 435:0.17817416 450:0.089087081 473:0.089087081 562:0.089087081 590:0.089087081 600:0.26726124 804:0.089087081 988:0.089087081 1032:0.17817416 1142:0.089087081 1196:0.089087081 1319:0.089087081 1426:0.089087081 1447:0.089087081 1895:0.089087081 2016:0.17817416 2111:0.089087081 2160:0.089087081 2669:0.089087081 2693:0.089087081 2793:0.089087081 3170:0.089087081 3387:0.089087081 3863:0.089087081 
0.1402756270940903 28:0.19611614 31:0.58834841 69:0.19611614 113:0.19611614 174:0.19611614 192:0.19611614 270:0.19611614 278:0.19611614 326:0.19611614 377:0.19611614 392:0.19611614 430:0.19611614 446:0.19611614 516:0.19611614 663:0.19611614 850:0.19611614 1020:0.19611614 1077:0.19611614 
0.2023493949803277 4:0.34815531 31:0.69631062 105:0.17407766 109:0.17407766 146:0.17407766 153:0.17407766 226:0.17407766 229:0.17407766 317:0.17407766 383:0.17407766 774:0.17407766 910:0.17407766 1119:0.17407766 1695:0.17407766 1899:0.17407766 
0.6335662620541465 118:0.2236068 150:0.2236068 156:0.2236068 161:0.2236068 188:0.2236068 194:0.2236068 326:0.2236068 337:0.2236068 400:0.2236068 415:0.2236068 452:0.2236068 604:0.2236068 615:0.2236068 663:0.2236068 842:0.2236068 1051:0.2236068 2226:0.2236068 2249:0.2236068 3092:0.2236068 3127:0.2236068 
1 4:0.12309149 31:0.36927447 50:0.12309149 69:0.12309149 72:0.12309149 83:0.12309149 99:0.12309149 118:0.12309149 129:0.73854895 250:0.12309149 301:0.12309149 307:0.12309149 328:0.12309149 548:0.12309149 696:0.12309149 870:0.12309149 1073:0.12309149 1093:0.12309149 1391:0.12309149 1518:0.12309149 2428:0.12309149 3603:0.12309149 4441:0.12309149 
0.2649235538371167 1:0.18898224 4:0.18898224 31:0.56694671 69:0.18898224 72:0.18898224 257:0.18898224 354:0.18898224 441:0.18898224 455:0.18898224 663:0.18898224 779:0.18898224 888:0.18898224 1069:0.18898224 1530:0.18898224 1850:0.18898224 2398:0.18898224 2894:0.18898224 2951:0.18898224 3926:0.18898224 4322:0.18898224 
1 31:0.49319696 54:0.32879797 114:0.16439899 121:0.16439899 316:0.32879797 350:0.16439899 574:0.16439899 1024:0.16439899 1136:0.16439899 1226:0.16439899 1345:0.49319696 2423:0.16439899 2630:0.16439899 3153:0.16439899 3642:0.16439899 
0.3964121807847437 1:0.1796053 26:0.3592106 28:0.3592106 31:0.3592106 64:0.1796053 78:0.3592106 146:0.1796053 160:0.1796053 200:0.1796053 284:0.1796053 342:0.1796053 838:0.1796053 843:0.1796053 851:0.1796053 984:0.1796053 1135:0.1796053 1581:0.1796053 4115:0.1796053 4167:0.1796053 
0.2439286448487506 31:0.58976782 35:0.14744196 50:0.29488391 69:0.14744196 87:0.14744196 106:0.14744196 223:0.14744196 336:0.14744196 413:0.14744196 595:0.14744196 612:0.14744196 707:0.14744196 747:0.14744196 812:0.14744196 850:0.14744196 979:0.14744196 1143:0.14744196 1241:0.14744196 1333:0.14744196 1807:0.14744196 2271:0.14744196 2352:0.14744196 2372:0.14744196 2559:0.14744196 3386:0.14744196 3624:0.14744196 4282:0.14744196 4412:0.14744196 
0.2740287717582273 4:0.43643578 31:0.21821789 91:0.21821789 133:0.21821789 184:0.21821789 196:0.21821789 250:0.21821789 323:0.21821789 700:0.43643578 1106:0.21821789 1112:0.21821789 1136:0.21821789 1951:0.21821789 1988:0.21821789 2352:0.21821789 
0.1338665628891973 4:0.31622777 18:0.31622777 31:0.15811388 51:0.15811388 156:0.15811388 275:0.15811388 291:0.15811388 335:0.15811388 442:0.15811388 472:0.15811388 615:0.47434165 657:0.15811388 790:0.15811388 837:0.15811388 871:0.31622777 888:0.15811388 1043:0.15811388 1136:0.15811388 1524:0.15811388 1833:0.15811388 2339:0.15811388 2592:0.15811388 3543:0.15811388 
0.815808142372661 31:0.64888568 65:0.16222142 72:0.16222142 147:0.16222142 221:0.16222142 264:0.16222142 282:0.16222142 297:0.16222142 301:0.16222142 353:0.16222142 416:0.16222142 893:0.32444284 1239:0.16222142 1275:0.16222142 2431:0.16222142 2498:0.16222142 2889:0.16222142 3149:0.16222142 3343:0.16222142 4124:0.16222142 
0.3993552639706415 4:0.23735633 28:0.23735633 31:0.71206899 46:0.11867817 51:0.11867817 65:0.23735633 105:0.11867817 115:0.11867817 134:0.11867817 200:0.11867817 618:0.11867817 619:0.11867817 760:0.11867817 847:0.11867817 898:0.11867817 1075:0.11867817 1156:0.11867817 1218:0.11867817 1389:0.11867817 1649:0.11867817 1759:0.11867817 1879:0.11867817 2071:0.11867817 4167:0.11867817 4520:0.11867817 4537:0.11867817 4548:0.11867817 
0.4336881843830575 1:0.16666667 31:0.5 78:0.16666667 87:0.16666667 181:0.16666667 195:0.16666667 307:0.16666667 472:0.16666667 478:0.16666667 549:0.16666667 600:0.16666667 713:0.16666667 746:0.16666667 1073:0.16666667 1155:0.16666667 1656:0.16666667 2042:0.16666667 2194:0.16666667 2691:0.5 3045:0.16666667 
0.05106503798309996 1:0.22941573 4:0.22941573 64:0.22941573 87:0.22941573 110:0.22941573 118:0.22941573 221:0.22941573 247:0.22941573 290:0.22941573 341:0.22941573 357:0.22941573 406:0.22941573 593:0.22941573 594:0.22941573 867:0.22941573 978:0.22941573 2037:0.22941573 2502:0.22941573 4346:0.22941573 
1 4:0.82078268 18:0.10259784 64:0.10259784 114:0.10259784 137:0.10259784 146:0.10259784 195:0.10259784 326:0.10259784 456:0.10259784 567:0.10259784 600:0.10259784 613:0.10259784 643:0.10259784 648:0.10259784 777:0.10259784 837:0.20519567 871:0.10259784 887:0.10259784 889:0.10259784 1000:0.10259784 1188:0.10259784 1610:0.10259784 1620:0.10259784 1662:0.10259784 1674:0.10259784 1687:0.10259784 2178:0.10259784 3339:0.10259784 4019:0.10259784 
0.2225373564891612 18:0.1796053 31:0.53881591 65:0.1796053 112:0.3592106 115:0.1796053 118:0.1796053 206:0.1796053 230:0.1796053 311:0.1796053 375:0.1796053 377:0.1796053 603:0.1796053 671:0.1796053 715:0.1796053 717:0.1796053 858:0.1796053 1389:0.1796053 2056:0.1796053 3432:0.1796053 4125:0.1796053 
0.3978753503774772 1:0.25819889 18:0.25819889 46:0.25819889 154:0.25819889 211:0.25819889 263:0.25819889 305:0.25819889 479:0.25819889 807:0.25819889 1054:0.25819889 1104:0.25819889 1319:0.25819889 2232:0.25819889 2466:0.25819889 3161:0.25819889 
0.2681436202902144 1:0.34815531 4:0.17407766 64:0.17407766 89:0.17407766 143:0.17407766 152:0.34815531 160:0.17407766 200:0.17407766 213:0.17407766 229:0.17407766 388:0.17407766 413:0.17407766 476:0.17407766 491:0.17407766 1249:0.17407766 1381:0.17407766 1395:0.52223297 1566:0.17407766 2145:0.17407766 
0.7108875332009396 28:0.19245009 31:0.57735027 54:0.19245009 113:0.19245009 154:0.19245009 258:0.19245009 283:0.19245009 489:0.19245009 907:0.19245009 1204:0.19245009 1513:0.19245009 1623:0.19245009 1651:0.19245009 1671:0.19245009 1734:0.19245009 2452:0.19245009 2457:0.19245009 4015:0.19245009 4066:0.19245009 
0.9938325695819691 4:0.42640143 26:0.21320072 28:0.21320072 31:0.21320072 78:0.21320072 193:0.21320072 284:0.21320072 536:0.21320072 942:0.21320072 994:0.42640143 1124:0.21320072 1216:0.21320072 1263:0.21320072 1520:0.21320072 3497:0.21320072 4547:0.21320072 
0.2049816757490204 4:0.21821789 31:0.43643578 143:0.21821789 147:0.21821789 194:0.21821789 211:0.21821789 358:0.21821789 487:0.21821789 562:0.21821789 606:0.21821789 713:0.21821789 751:0.21821789 1011:0.21821789 1452:0.21821789 1681:0.21821789 2674:0.21821789 3856:0.21821789 4543:0.21821789 
0.3986966433920504 1:0.1767767 28:0.53033009 31:0.35355339 36:0.1767767 97:0.1767767 223:0.1767767 244:0.1767767 269:0.1767767 311:0.1767767 343:0.1767767 487:0.1767767 509:0.35355339 523:0.1767767 645:0.1767767 979:0.1767767 2923:0.1767767 3321:0.1767767 3678:0.1767767 
0.4316408704720265 4:0.17149859 18:0.17149859 31:0.51449576 37:0.17149859 51:0.17149859 57:0.17149859 156:0.17149859 187:0.17149859 226:0.17149859 413:0.17149859 540:0.34299717 567:0.17149859 600:0.17149859 648:0.17149859 850:0.17149859 875:0.17149859 893:0.17149859 905:0.17149859 970:0.17149859 1426:0.17149859 2160:0.17149859 2506:0.17149859 3700:0.17149859 
0.1688950356819207 4:0.13130643 28:0.26261287 31:0.65653216 106:0.13130643 166:0.13130643 170:0.13130643 177:0.13130643 186:0.13130643 336:0.13130643 406:0.13130643 456:0.13130643 619:0.13130643 870:0.13130643 887:0.13130643 1004:0.13130643 1139:0.13130643 1271:0.13130643 1335:0.26261287 1379:0.13130643 1738:0.13130643 2889:0.13130643 3017:0.26261287 3073:0.13130643 3878:0.13130643 4237:0.13130643 
0.6643763098284777 4:0.20412415 31:0.61237244 64:0.20412415 110:0.20412415 237:0.20412415 275:0.20412415 296:0.20412415 327:0.20412415 453:0.20412415 648:0.20412415 891:0.20412415 905:0.20412415 973:0.20412415 1232:0.20412415 3605:0.20412415 4547:0.20412415 
0.07003816304003267 31:0.22941573 37:0.22941573 87:0.22941573 137:0.45883147 146:0.22941573 181:0.22941573 289:0.22941573 435:0.22941573 566:0.22941573 715:0.22941573 851:0.22941573 1510:0.22941573 1564:0.22941573 1815:0.22941573 2221:0.22941573 2251:0.22941573 
0.145050221178762 4:0.21821789 18:0.21821789 31:0.43643578 35:0.21821789 57:0.21821789 65:0.21821789 152:0.21821789 154:0.21821789 377:0.21821789 444:0.21821789 512:0.21821789 579:0.21821789 941:0.21821789 1420:0.21821789 2034:0.21821789 2565:0.21821789 4346:0.21821789 4562:0.21821789 
0.3488737282179427 76:0.16903085 137:0.3380617 150:0.16903085 176:0.16903085 181:0.16903085 201:0.16903085 220:0.16903085 246:0.16903085 319:0.16903085 328:0.16903085 331:0.16903085 342:0.3380617 392:0.16903085 414:0.16903085 435:0.16903085 547:0.16903085 644:0.16903085 654:0.16903085 668:0.16903085 672:0.16903085 695:0.16903085 937:0.16903085 942:0.16903085 1136:0.16903085 1238:0.16903085 1365:0.16903085 3677:0.16903085 3970:0.16903085 4050:0.16903085 
0.1208296937581043 4:0.25 28:0.25 72:0.25 118:0.25 123:0.25 161:0.25 188:0.25 201:0.25 230:0.25 415:0.25 520:0.25 615:0.25 842:0.25 982:0.25 1021:0.25 2637:0.25 
0.3383445721824194 1:0.32025631 51:0.16012815 87:0.16012815 110:0.16012815 121:0.32025631 154:0.16012815 194:0.16012815 278:0.16012815 289:0.16012815 411:0.16012815 455:0.16012815 533:0.16012815 579:0.16012815 600:0.16012815 713:0.16012815 891:0.16012815 1155:0.16012815 1308:0.48038446 1447:0.16012815 1496:0.16012815 1711:0.16012815 1948:0.16012815 2144:0.16012815 2147:0.16012815 4105:0.16012815 
0.3341272952858874 4:0.51449576 18:0.17149859 59:0.17149859 86:0.17149859 185:0.17149859 473:0.17149859 480:0.17149859 554:0.51449576 648:0.17149859 712:0.17149859 739:0.17149859 775:0.17149859 1020:0.17149859 1136:0.17149859 1161:0.17149859 1458:0.17149859 1783:0.17149859 2688:0.17149859 
0.4390685584786678 31:0.70710678 61:0.23570226 102:0.23570226 185:0.23570226 348:0.23570226 523:0.23570226 1033:0.23570226 1172:0.23570226 1411:0.23570226 2909:0.23570226 
0.09669160375846883 4:0.15617376 18:0.15617376 26:0.15617376 31:0.62469505 62:0.15617376 78:0.31234752 118:0.15617376 123:0.15617376 143:0.15617376 193:0.15617376 258:0.15617376 306:0.15617376 346:0.15617376 414:0.15617376 593:0.15617376 600:0.15617376 680:0.15617376 735:0.15617376 1124:0.15617376 1216:0.15617376 2011:0.15617376 2166:0.15617376 2338:0.15617376 
0.5793255670986133 31:0.24253563 88:0.24253563 106:0.24253563 166:0.24253563 200:0.24253563 259:0.24253563 301:0.24253563 392:0.24253563 619:0.24253563 730:0.24253563 892:0.24253563 1041:0.24253563 1330:0.24253563 1436:0.24253563 1682:0.24253563 1924:0.24253563 2081:0.24253563 
0.2910685531213401 4:0.48507125 38:0.24253563 89:0.24253563 106:0.24253563 123:0.24253563 185:0.24253563 274:0.24253563 413:0.24253563 476:0.24253563 639:0.24253563 1395:0.24253563 2204:0.24253563 2426:0.24253563 3561:0.24253563 
0.5848130960039467 4:0.3592106 31:0.53881591 51:0.1796053 62:0.1796053 65:0.3592106 114:0.1796053 123:0.1796053 203:0.1796053 274:0.1796053 546:0.1796053 648:0.1796053 957:0.1796053 974:0.1796053 1437:0.1796053 1448:0.1796053 1832:0.1796053 2353:0.1796053 
0.478040656121168 4:0.18569534 28:0.37139068 31:0.37139068 35:0.18569534 143:0.37139068 212:0.18569534 259:0.18569534 275:0.18569534 288:0.18569534 388:0.18569534 429:0.18569534 459:0.18569534 597:0.18569534 703:0.18569534 931:0.18569534 986:0.18569534 1262:0.18569534 1490:0.18569534 2345:0.18569534 3654:0.18569534 
0.1813574725505529 4:0.15249857 19:0.15249857 57:0.15249857 61:0.15249857 112:0.30499714 115:0.15249857 177:0.15249857 198:0.15249857 211:0.15249857 221:0.15249857 223:0.15249857 250:0.15249857 304:0.15249857 341:0.15249857 353:0.15249857 456:0.15249857 713:0.15249857 796:0.15249857 938:0.15249857 1026:0.15249857 1095:0.30499714 1144:0.15249857 1251:0.15249857 1335:0.15249857 1452:0.15249857 1519:0.15249857 1541:0.15249857 1552:0.15249857 1565:0.15249857 1663:0.15249857 1763:0.15249857 2200:0.15249857 2690:0.15249857 2779:0.15249857 3856:0.15249857 3861:0.15249857 4057:0.15249857 
1 4:0.15811388 31:0.47434165 150:0.15811388 241:0.15811388 307:0.15811388 337:0.15811388 377:0.15811388 405:0.15811388 470:0.15811388 478:0.15811388 512:0.15811388 541:0.15811388 600:0.15811388 635:0.15811388 703:0.15811388 705:0.31622777 759:0.15811388 780:0.15811388 787:0.15811388 1048:0.15811388 1107:0.15811388 1328:0.31622777 1675:0.15811388 1987:0.15811388 2160:0.15811388 4084:0.15811388 
0.5794748459563169 4:0.2773501 18:0.41602515 89:0.13867505 91:0.13867505 99:0.13867505 156:0.13867505 217:0.13867505 250:0.13867505 377:0.13867505 407:0.13867505 410:0.13867505 469:0.13867505 751:0.13867505 759:0.2773501 913:0.13867505 951:0.13867505 957:0.13867505 1035:0.13867505 1136:0.13867505 1206:0.13867505 1292:0.13867505 1594:0.2773501 1601:0.2773501 2098:0.13867505 2451:0.2773501 2675:0.13867505 3312:0.13867505 3391:0.13867505 4371:0.13867505 
0.7588676235071404 1:0.51639778 82:0.25819889 415:0.25819889 435:0.25819889 472:0.25819889 488:0.25819889 566:0.25819889 653:0.25819889 1478:0.25819889 1538:0.25819889 2683:0.25819889 3169:0.25819889 
0.5696993409268466 4:0.27216553 18:0.13608276 31:0.27216553 37:0.13608276 50:0.13608276 53:0.13608276 95:0.13608276 147:0.13608276 156:0.13608276 177:0.13608276 198:0.13608276 250:0.13608276 327:0.13608276 344:0.13608276 357:0.13608276 430:0.13608276 439:0.13608276 703:0.13608276 705:0.13608276 712:0.13608276 718:0.13608276 745:0.27216553 773:0.13608276 779:0.13608276 789:0.13608276 888:0.13608276 921:0.27216553 1034:0.27216553 1144:0.13608276 1328:0.13608276 1335:0.13608276 1391:0.13608276 1486:0.13608276 2619:0.13608276 2627:0.13608276 3145:0.13608276 3880:0.13608276 3929:0.13608276 3998:0.13608276 
1 4:0.10439915 18:0.052199575 33:0.052199575 54:0.052199575 57:0.052199575 61:0.052199575 73:0.052199575 146:0.052199575 147:0.052199575 150:0.052199575 168:0.052199575 177:0.052199575 195:0.052199575 221:0.052199575 274:0.052199575 276:0.052199575 308:0.052199575 426:0.052199575 441:0.052199575 444:0.052199575 456:0.052199575 548:0.052199575 726:0.052199575 730:0.052199575 844:0.052199575 867:0.052199575 979:0.052199575 1136:0.052199575 1161:0.052199575 1427:0.052199575 1524:0.052199575 1628:0.052199575 1780:0.052199575 1833:0.052199575 2078:0.052199575 2165:0.052199575 2267:0.052199575 2340:0.052199575 2787:0.052199575 3280:0.93959235 3652:0.052199575 
0.2980293069908007 18:0.19245009 28:0.19245009 31:0.38490018 35:0.19245009 129:0.19245009 162:0.19245009 176:0.19245009 194:0.19245009 239:0.19245009 282:0.19245009 294:0.19245009 301:0.19245009 339:0.19245009 548:0.19245009 870:0.19245009 882:0.19245009 1330:0.19245009 1816:0.19245009 2287:0.19245009 2781:0.19245009 2783:0.19245009 2953:0.19245009 3975:0.19245009 4545:0.19245009 
0.4848293217869558 4:0.34815531 28:0.34815531 31:0.52223297 83:0.17407766 257:0.17407766 296:0.17407766 346:0.17407766 435:0.17407766 489:0.17407766 536:0.17407766 545:0.17407766 1232:0.17407766 1515:0.17407766 1638:0.17407766 1832:0.17407766 2485:0.17407766 2738:0.17407766 3128:0.17407766 3920:0.17407766 
0.03524803124404763 28:0.1767767 37:0.1767767 50:0.1767767 57:0.1767767 61:0.1767767 62:0.1767767 87:0.1767767 92:0.1767767 97:0.1767767 150:0.1767767 269:0.1767767 326:0.1767767 352:0.1767767 372:0.1767767 377:0.1767767 600:0.1767767 647:0.1767767 764:0.1767767 790:0.1767767 1084:0.1767767 1144:0.1767767 1148:0.35355339 1216:0.1767767 1684:0.1767767 1994:0.1767767 2076:0.1767767 2777:0.1767767 3912:0.1767767 4403:0.1767767 
1 1:0.086710997 4:0.17342199 31:0.78039897 65:0.086710997 83:0.086710997 176:0.17342199 190:0.086710997 191:0.086710997 195:0.086710997 211:0.086710997 212:0.086710997 254:0.086710997 257:0.086710997 277:0.17342199 305:0.086710997 346:0.086710997 429:0.086710997 459:0.086710997 520:0.086710997 553:0.086710997 573:0.086710997 600:0.086710997 608:0.086710997 648:0.086710997 660:0.086710997 715:0.086710997 804:0.086710997 922:0.086710997 1136:0.086710997 1266:0.17342199 1443:0.086710997 1686:0.086710997 1774:0.086710997 1987:0.086710997 2492:0.086710997 2506:0.086710997 2562:0.086710997 2797:0.086710997 3335:0.086710997 3891:0.086710997 4356:0.086710997 
0.9768228737955487 31:0.4472136 114:0.2236068 296:0.4472136 407:0.2236068 542:0.2236068 620:0.2236068 943:0.2236068 1216:0.2236068 1232:0.2236068 1246:0.2236068 1437:0.2236068 2670:0.2236068 3306:0.2236068 4437:0.2236068 
0.3183249029529539 4:0.20412415 87:0.20412415 99:0.20412415 110:0.20412415 134:0.20412415 137:0.20412415 146:0.20412415 185:0.20412415 247:0.20412415 322:0.20412415 331:0.20412415 357:0.20412415 399:0.20412415 810:0.20412415 835:0.20412415 846:0.20412415 965:0.20412415 1085:0.20412415 1216:0.20412415 1330:0.20412415 1816:0.20412415 2038:0.20412415 3050:0.20412415 3525:0.20412415 
1 1:0.1767767 4:0.35355339 18:0.35355339 28:0.1767767 31:0.35355339 310:0.1767767 331:0.1767767 600:0.1767767 723:0.1767767 1052:0.1767767 1420:0.1767767 1447:0.1767767 1668:0.35355339 1869:0.1767767 2239:0.35355339 3644:0.1767767 4355:0.1767767 
0.6769754973449734 4:0.46816459 18:0.23408229 31:0.58520574 51:0.11704115 87:0.11704115 92:0.11704115 113:0.11704115 123:0.11704115 254:0.11704115 257:0.11704115 259:0.11704115 321:0.11704115 600:0.11704115 671:0.11704115 718:0.11704115 857:0.11704115 971:0.11704115 1028:0.11704115 1073:0.11704115 1085:0.11704115 1136:0.11704115 1442:0.11704115 1444:0.11704115 1630:0.11704115 2152:0.11704115 2274:0.11704115 2636:0.11704115 3330:0.11704115 3391:0.11704115 3666:0.11704115 4492:0.11704115 
1 1:0.1490712 4:0.2981424 28:0.74535599 64:0.1490712 307:0.2981424 354:0.1490712 420:0.1490712 439:0.1490712 453:0.1490712 656:0.1490712 1136:0.1490712 1204:0.1490712 2691:0.1490712 2777:0.1490712 3545:0.1490712 
0.06780627177100634 4:0.25607376 28:0.12803688 31:0.6401844 110:0.12803688 147:0.12803688 193:0.12803688 216:0.12803688 226:0.51214752 443:0.12803688 444:0.25607376 537:0.12803688 572:0.12803688 1714:0.12803688 2292:0.12803688 3015:0.12803688 3642:0.12803688 
1 4:0.35355339 19:0.1767767 31:0.53033009 64:0.1767767 161:0.1767767 185:0.1767767 600:0.1767767 619:0.1767767 659:0.1767767 1004:0.35355339 1137:0.35355339 1480:0.1767767 1581:0.1767767 3144:0.1767767 4520:0.1767767 
0.4839866339020817 4:0.2236068 31:0.4472136 188:0.2236068 206:0.2236068 236:0.2236068 277:0.2236068 415:0.2236068 509:0.2236068 529:0.2236068 648:0.2236068 795:0.2236068 1810:0.2236068 4191:0.2236068 4521:0.4472136 
0.9847817909547553 1:0.5 119:0.5 823:0.5 1120:0.5 
0.3466121267571852 4:0.093250481 20:0.093250481 28:0.18650096 31:0.74600385 50:0.093250481 51:0.18650096 65:0.093250481 97:0.093250481 190:0.093250481 291:0.093250481 331:0.093250481 424:0.27975144 436:0.093250481 536:0.093250481 597:0.093250481 640:0.093250481 645:0.093250481 646:0.093250481 648:0.093250481 739:0.093250481 901:0.093250481 1142:0.093250481 1263:0.093250481 1267:0.093250481 1339:0.093250481 1484:0.093250481 1520:0.093250481 2210:0.093250481 2338:0.093250481 2398:0.093250481 2762:0.093250481 3314:0.18650096 4062:0.093250481 4108:0.093250481 4433:0.093250481 
0.0696718078480749 11:0.24618298 31:0.12309149 61:0.12309149 64:0.12309149 82:0.36927447 87:0.24618298 109:0.12309149 162:0.12309149 187:0.12309149 196:0.12309149 202:0.12309149 212:0.12309149 307:0.24618298 326:0.12309149 438:0.12309149 473:0.24618298 549:0.12309149 676:0.12309149 707:0.12309149 746:0.12309149 851:0.36927447 891:0.12309149 1174:0.12309149 1285:0.12309149 1335:0.12309149 1433:0.12309149 1443:0.12309149 1521:0.12309149 1987:0.12309149 2160:0.24618298 3692:0.24618298 4550:0.12309149 
0.6337435067010087 4:0.21320072 18:0.21320072 37:0.21320072 109:0.21320072 174:0.21320072 326:0.21320072 411:0.21320072 421:0.21320072 469:0.21320072 846:0.21320072 874:0.21320072 962:0.21320072 1094:0.21320072 1174:0.21320072 1204:0.21320072 1251:0.42640143 1759:0.21320072 2086:0.21320072 3353:0.21320072 
0.3634817420802149 1:0.18569534 4:0.37139068 46:0.18569534 110:0.18569534 186:0.18569534 212:0.18569534 248:0.18569534 268:0.37139068 357:0.18569534 377:0.37139068 472:0.18569534 619:0.18569534 638:0.18569534 951:0.18569534 1174:0.18569534 1198:0.18569534 2777:0.18569534 3376:0.18569534 3933:0.18569534 4093:0.18569534 
0.2669204339810312 1:0.18569534 4:0.18569534 28:0.18569534 31:0.55708601 109:0.18569534 174:0.18569534 274:0.18569534 429:0.18569534 916:0.18569534 1136:0.18569534 1227:0.18569534 1251:0.18569534 1647:0.18569534 2096:0.37139068 2208:0.18569534 2463:0.18569534 3353:0.18569534 3975:0.18569534 
0.06738902667511511 4:0.1767767 62:0.1767767 69:0.1767767 83:0.1767767 86:0.1767767 120:0.1767767 160:0.35355339 215:0.1767767 229:0.53033009 250:0.1767767 288:0.1767767 370:0.1767767 436:0.1767767 447:0.1767767 801:0.1767767 1136:0.1767767 2475:0.1767767 3416:0.1767767 3540:0.1767767 3692:0.1767767 3862:0.1767767 
0.6870706557910181 1:0.22941573 4:0.22941573 21:0.22941573 35:0.22941573 87:0.22941573 92:0.22941573 184:0.22941573 291:0.22941573 659:0.22941573 754:0.22941573 790:0.22941573 1070:0.22941573 1704:0.22941573 1833:0.22941573 1987:0.22941573 2249:0.22941573 2287:0.22941573 2926:0.22941573 3045:0.22941573 
0.3031364816067202 1:0.17149859 4:0.17149859 20:0.17149859 37:0.17149859 72:0.17149859 87:0.17149859 116:0.17149859 120:0.17149859 147:0.17149859 200:0.17149859 230:0.17149859 308:0.17149859 339:0.34299717 350:0.17149859 435:0.17149859 464:0.17149859 619:0.17149859 843:0.17149859 1177:0.17149859 1380:0.17149859 1792:0.34299717 1848:0.17149859 3588:0.17149859 3979:0.17149859 4369:0.34299717 
1 1:0.11547005 4:0.11547005 31:0.80829038 35:0.23094011 41:0.11547005 61:0.11547005 112:0.11547005 150:0.11547005 211:0.11547005 356:0.11547005 690:0.11547005 810:0.11547005 821:0.11547005 1263:0.11547005 1432:0.11547005 1816:0.11547005 2214:0.11547005 2235:0.23094011 2261:0.11547005 3128:0.11547005 3143:0.11547005 
0.01767221243440365 4:0.16222142 18:0.16222142 57:0.16222142 73:0.16222142 105:0.16222142 146:0.32444284 181:0.16222142 220:0.16222142 239:0.32444284 278:0.16222142 354:0.16222142 472:0.16222142 532:0.32444284 597:0.16222142 710:0.16222142 778:0.16222142 1136:0.32444284 1170:0.16222142 1200:0.16222142 1549:0.16222142 2228:0.32444284 2233:0.16222142 4174:0.16222142 
0.6152107752251643 4:0.37139068 31:0.37139068 217:0.18569534 239:0.37139068 268:0.18569534 291:0.18569534 377:0.18569534 529:0.18569534 531:0.18569534 636:0.37139068 790:0.18569534 846:0.18569534 866:0.18569534 1216:0.18569534 1436:0.18569534 2995:0.18569534 3164:0.18569534 
1 4:0.38490018 28:0.57735027 83:0.19245009 89:0.19245009 137:0.19245009 206:0.19245009 294:0.19245009 323:0.19245009 453:0.19245009 545:0.19245009 589:0.19245009 600:0.19245009 1218:0.19245009 1292:0.19245009 1863:0.19245009 2711:0.19245009 
0.01105687221437035 28:0.37796447 31:0.37796447 33:0.12598816 54:0.12598816 57:0.12598816 118:0.12598816 143:0.25197632 150:0.12598816 160:0.12598816 213:0.12598816 221:0.12598816 229:0.12598816 235:0.12598816 286:0.12598816 291:0.50395263 326:0.12598816 597:0.12598816 648:0.12598816 728:0.12598816 739:0.12598816 779:0.12598816 1136:0.12598816 1524:0.12598816 1604:0.12598816 1698:0.12598816 1833:0.12598816 1858:0.12598816 2003:0.12598816 2080:0.12598816 
0.2462084393799937 1:0.1767767 21:0.1767767 64:0.1767767 69:0.1767767 89:0.1767767 110:0.35355339 137:0.1767767 186:0.1767767 201:0.1767767 212:0.35355339 220:0.1767767 348:0.1767767 354:0.1767767 453:0.1767767 546:0.1767767 584:0.1767767 644:0.1767767 888:0.1767767 956:0.1767767 1292:0.1767767 1379:0.1767767 1530:0.1767767 2779:0.1767767 3964:0.1767767 4388:0.1767767 4393:0.1767767 
0.7153707703472555 1:0.19245009 4:0.19245009 64:0.19245009 65:0.19245009 105:0.19245009 259:0.19245009 274:0.19245009 356:0.19245009 405:0.19245009 430:0.19245009 431:0.19245009 433:0.19245009 448:0.19245009 512:0.19245009 516:0.19245009 730:0.19245009 763:0.19245009 981:0.19245009 1156:0.19245009 1262:0.19245009 1292:0.19245009 1544:0.19245009 2375:0.19245009 2470:0.19245009 2598:0.19245009 2974:0.19245009 4196:0.19245009 
0.2024171814534845 31:0.72168784 64:0.14433757 65:0.14433757 73:0.14433757 146:0.14433757 154:0.14433757 195:0.14433757 258:0.14433757 263:0.14433757 296:0.14433757 321:0.14433757 424:0.14433757 563:0.14433757 789:0.14433757 1026:0.14433757 1139:0.14433757 1613:0.14433757 1838:0.14433757 2078:0.14433757 2444:0.14433757 2572:0.14433757 2879:0.14433757 3061:0.14433757 3082:0.14433757 
0.8327708190245998 33:0.2236068 149:0.4472136 184:0.2236068 331:0.4472136 339:0.2236068 479:0.2236068 599:0.2236068 640:0.2236068 664:0.2236068 1003:0.2236068 1408:0.2236068 1542:0.2236068 2163:0.2236068 2990:0.2236068 
1 186:0.70710678 2944:0.70710678 
0.1045080697699542 1:0.13608276 28:0.13608276 31:0.68041382 110:0.13608276 113:0.13608276 181:0.13608276 212:0.13608276 243:0.13608276 307:0.13608276 404:0.13608276 444:0.13608276 453:0.13608276 479:0.13608276 549:0.13608276 648:0.13608276 673:0.27216553 780:0.13608276 1010:0.13608276 1021:0.13608276 1048:0.13608276 1245:0.13608276 1668:0.13608276 2072:0.13608276 2157:0.13608276 2591:0.13608276 2780:0.13608276 3612:0.13608276 
0.2758242294618419 1:0.22941573 4:0.22941573 28:0.45883147 31:0.22941573 82:0.22941573 89:0.22941573 274:0.22941573 388:0.22941573 754:0.22941573 883:0.22941573 1092:0.22941573 1240:0.22941573 1607:0.22941573 1714:0.22941573 2340:0.22941573 2583:0.22941573 
0.8696270380359041 4:0.37139068 61:0.37139068 147:0.18569534 175:0.18569534 178:0.18569534 239:0.18569534 243:0.18569534 308:0.18569534 317:0.18569534 645:0.18569534 673:0.37139068 760:0.18569534 1029:0.18569534 1186:0.18569534 1292:0.18569534 1596:0.18569534 1641:0.18569534 2239:0.18569534 2780:0.18569534 3692:0.18569534 
0.5194921302244108 4:0.25819889 57:0.25819889 73:0.25819889 109:0.25819889 143:0.25819889 160:0.25819889 213:0.25819889 223:0.25819889 229:0.25819889 283:0.25819889 1264:0.25819889 1391:0.25819889 1650:0.25819889 1904:0.25819889 3084:0.25819889 
0.05169264109616169 4:0.10153462 31:0.81227693 37:0.10153462 57:0.10153462 62:0.10153462 64:0.10153462 113:0.10153462 185:0.10153462 194:0.10153462 214:0.10153462 224:0.10153462 274:0.10153462 276:0.20306923 471:0.10153462 489:0.10153462 600:0.10153462 620:0.10153462 688:0.20306923 764:0.10153462 765:0.10153462 996:0.10153462 1216:0.10153462 1477:0.10153462 1517:0.10153462 2628:0.10153462 2734:0.10153462 3083:0.10153462 3953:0.10153462 
0.4259377118032069 31:0.4 143:0.2 149:0.4 150:0.2 200:0.2 270:0.2 297:0.2 541:0.2 647:0.2 648:0.2 723:0.2 1146:0.2 1763:0.2 2226:0.2 2243:0.4 3967:0.2 
1 1:0.22941573 35:0.22941573 61:0.22941573 83:0.22941573 113:0.22941573 546:0.22941573 671:0.22941573 675:0.22941573 834:0.22941573 888:0.22941573 891:0.22941573 1279:0.45883147 1397:0.22941573 1473:0.22941573 1584:0.22941573 4555:0.22941573 
0.3362822376599424 1:0.11867817 31:0.71206899 33:0.11867817 69:0.23735633 73:0.11867817 229:0.11867817 230:0.23735633 251:0.11867817 258:0.11867817 278:0.11867817 293:0.11867817 445:0.11867817 612:0.11867817 709:0.11867817 859:0.11867817 1036:0.11867817 1051:0.11867817 1114:0.11867817 1396:0.11867817 1469:0.11867817 1496:0.23735633 1621:0.11867817 2280:0.11867817 2636:0.11867817 3340:0.11867817 3469:0.11867817 3472:0.11867817 
0.5190129479932663 4:0.14509525 18:0.072547625 28:0.21764288 31:0.79802388 65:0.072547625 69:0.072547625 86:0.072547625 110:0.072547625 124:0.072547625 160:0.072547625 185:0.072547625 188:0.072547625 213:0.072547625 229:0.072547625 237:0.072547625 274:0.072547625 400:0.072547625 440:0.072547625 488:0.072547625 507:0.072547625 556:0.072547625 567:0.072547625 593:0.14509525 600:0.072547625 713:0.072547625 750:0.14509525 857:0.072547625 885:0.072547625 1136:0.14509525 1308:0.21764288 1491:0.072547625 1915:0.072547625 2073:0.072547625 2240:0.072547625 2957:0.072547625 2963:0.072547625 3459:0.14509525 3653:0.072547625 3949:0.072547625 
1 4:0.4 134:0.2 274:0.2 411:0.2 537:0.2 582:0.2 603:0.2 619:0.2 1048:0.2 1112:0.2 1142:0.2 1589:0.2 1848:0.2 1946:0.2 2040:0.2 2506:0.2 2723:0.2 3323:0.2 3691:0.2 3695:0.2 3916:0.2 3973:0.2 
0.5961789251244154 31:0.6 150:0.2 170:0.2 194:0.2 200:0.2 532:0.2 545:0.2 562:0.2 727:0.2 837:0.2 1518:0.2 1589:0.2 2800:0.4 3079:0.2 
0.7119452829311949 1:0.20851441 28:0.62554324 31:0.20851441 196:0.20851441 201:0.20851441 203:0.20851441 226:0.20851441 309:0.20851441 435:0.20851441 447:0.20851441 699:0.20851441 1369:0.20851441 1610:0.20851441 1638:0.20851441 2404:0.20851441 
0.7625438295535748 1:0.14002801 31:0.70014004 110:0.14002801 126:0.14002801 156:0.14002801 170:0.14002801 201:0.14002801 345:0.14002801 533:0.14002801 613:0.14002801 835:0.14002801 888:0.14002801 893:0.28005602 970:0.14002801 1216:0.14002801 1848:0.14002801 1850:0.14002801 2733:0.14002801 3280:0.28005602 3689:0.14002801 4094:0.14002801 
0.7655142838383414 4:0.22941573 28:0.22941573 31:0.45883147 88:0.22941573 177:0.22941573 274:0.22941573 415:0.22941573 525:0.22941573 546:0.22941573 678:0.22941573 891:0.22941573 1173:0.22941573 1181:0.22941573 1993:0.22941573 3663:0.22941573 4291:0.22941573 
0.3614337476519464 1:0.37796447 4:0.37796447 51:0.18898224 114:0.18898224 261:0.18898224 270:0.18898224 277:0.18898224 327:0.18898224 452:0.18898224 566:0.18898224 600:0.18898224 772:0.18898224 851:0.18898224 877:0.18898224 885:0.18898224 1696:0.18898224 2071:0.18898224 2199:0.18898224 2393:0.18898224 2724:0.18898224 2732:0.18898224 2988:0.18898224 
0.6062387423230468 20:0.23570226 51:0.23570226 160:0.23570226 185:0.23570226 192:0.23570226 275:0.23570226 328:0.23570226 444:0.23570226 943:0.23570226 1224:0.23570226 1437:0.23570226 1441:0.23570226 2002:0.23570226 2782:0.23570226 3653:0.23570226 4086:0.23570226 4296:0.23570226 4547:0.23570226 
0.04370989044002076 4:0.11624764 18:0.11624764 20:0.11624764 21:0.46499055 69:0.11624764 113:0.11624764 154:0.34874292 216:0.11624764 270:0.11624764 278:0.11624764 445:0.11624764 644:0.23249528 654:0.23249528 946:0.11624764 1031:0.11624764 1041:0.11624764 1060:0.11624764 1069:0.23249528 1176:0.23249528 1264:0.11624764 1389:0.11624764 1518:0.11624764 1948:0.11624764 2026:0.11624764 2174:0.11624764 2224:0.11624764 2370:0.11624764 2587:0.11624764 2603:0.11624764 2974:0.34874292 4318:0.11624764 
0.2138081782052767 28:0.18898224 31:0.56694671 119:0.18898224 187:0.18898224 198:0.18898224 221:0.18898224 280:0.18898224 282:0.18898224 386:0.18898224 444:0.18898224 507:0.18898224 566:0.18898224 844:0.18898224 851:0.18898224 1221:0.18898224 1250:0.18898224 1510:0.18898224 1656:0.18898224 1926:0.18898224 2896:0.18898224 
0.2396689257583004 31:0.74199852 78:0.10599979 99:0.10599979 176:0.10599979 208:0.21199958 221:0.10599979 282:0.10599979 304:0.10599979 350:0.10599979 509:0.10599979 532:0.10599979 690:0.10599979 769:0.10599979 779:0.10599979 783:0.10599979 892:0.10599979 1136:0.10599979 1288:0.10599979 1303:0.21199958 1317:0.10599979 1341:0.21199958 1389:0.10599979 1538:0.10599979 1852:0.10599979 1913:0.10599979 1924:0.10599979 1999:0.10599979 3298:0.10599979 3425:0.10599979 3599:0.10599979 3600:0.10599979 3928:0.10599979 
0.01991872179547942 28:0.1767767 31:0.35355339 38:0.1767767 57:0.1767767 176:0.1767767 192:0.1767767 218:0.1767767 239:0.1767767 264:0.1767767 268:0.1767767 300:0.1767767 449:0.1767767 551:0.1767767 588:0.1767767 619:0.1767767 654:0.1767767 731:0.1767767 1383:0.1767767 1504:0.1767767 1894:0.1767767 1954:0.1767767 2002:0.1767767 2026:0.35355339 2676:0.1767767 3463:0.1767767 3530:0.1767767 
0.007336554355348475 1:0.16903085 28:0.6761234 37:0.16903085 51:0.16903085 54:0.16903085 59:0.16903085 120:0.16903085 147:0.16903085 170:0.16903085 261:0.16903085 270:0.16903085 307:0.16903085 410:0.16903085 459:0.16903085 898:0.16903085 901:0.16903085 984:0.16903085 1374:0.16903085 2178:0.16903085 3960:0.16903085 
0.09846349637049522 1:0.34815531 4:0.17407766 18:0.17407766 31:0.17407766 87:0.17407766 147:0.17407766 262:0.17407766 301:0.34815531 406:0.17407766 450:0.17407766 472:0.17407766 527:0.17407766 589:0.17407766 595:0.17407766 648:0.17407766 790:0.17407766 1084:0.17407766 1104:0.17407766 1216:0.34815531 1502:0.17407766 1530:0.17407766 1775:0.17407766 2393:0.17407766 3373:0.17407766 
0.2874567296346806 1:0.2 28:0.4 31:0.4 51:0.2 65:0.2 70:0.2 77:0.2 121:0.2 190:0.2 191:0.2 342:0.2 399:0.2 1047:0.2 1305:0.2 1324:0.2 1408:0.2 2099:0.2 2782:0.2 2879:0.2 
0.08739791529243352 1:0.15249857 4:0.15249857 31:0.15249857 50:0.15249857 65:0.15249857 119:0.15249857 134:0.15249857 174:0.15249857 176:0.15249857 190:0.15249857 191:0.15249857 193:0.15249857 228:0.15249857 237:0.30499714 277:0.15249857 388:0.15249857 402:0.15249857 447:0.15249857 808:0.15249857 864:0.15249857 943:0.15249857 1150:0.15249857 1181:0.15249857 1233:0.15249857 1534:0.15249857 2150:0.45749571 2356:0.30499714 2444:0.15249857 2461:0.15249857 
0.06634201909158896 1:0.10660036 18:0.10660036 28:0.42640143 31:0.42640143 195:0.10660036 237:0.21320072 261:0.10660036 296:0.10660036 355:0.10660036 378:0.10660036 408:0.10660036 430:0.10660036 446:0.10660036 450:0.10660036 459:0.10660036 541:0.10660036 750:0.10660036 796:0.10660036 838:0.10660036 846:0.10660036 874:0.21320072 875:0.10660036 973:0.10660036 1032:0.10660036 1046:0.10660036 1136:0.10660036 1152:0.21320072 1292:0.10660036 1388:0.10660036 1406:0.10660036 1561:0.21320072 1847:0.21320072 2427:0.10660036 2997:0.10660036 3363:0.10660036 3891:0.10660036 3961:0.10660036 4231:0.10660036 4376:0.21320072 4448:0.10660036 
0.43759957706057 1:0.2 31:0.6 87:0.2 151:0.2 268:0.2 455:0.2 588:0.2 951:0.2 994:0.2 1224:0.2 1443:0.2 1504:0.2 1668:0.2 1747:0.2 2935:0.2 4148:0.2 4547:0.2 
0.2774542854577743 1:0.15075567 31:0.60302269 87:0.15075567 174:0.30151134 194:0.15075567 201:0.15075567 261:0.15075567 274:0.15075567 307:0.30151134 447:0.15075567 455:0.15075567 471:0.30151134 540:0.15075567 817:0.15075567 891:0.15075567 1225:0.15075567 1625:0.30151134 
0.783643393779267 28:0.2236068 31:0.67082039 61:0.2236068 62:0.2236068 660:0.2236068 1035:0.2236068 1080:0.2236068 1148:0.2236068 1224:0.2236068 1292:0.2236068 1620:0.2236068 2191:0.2236068 
0.6351335144286587 1:0.20851441 28:0.20851441 31:0.41702883 97:0.20851441 110:0.20851441 187:0.20851441 188:0.20851441 415:0.20851441 479:0.20851441 488:0.20851441 565:0.20851441 600:0.20851441 796:0.20851441 842:0.20851441 1319:0.20851441 1337:0.20851441 1837:0.20851441 3490:0.20851441 3893:0.20851441 4029:0.20851441 
0.06568994915938531 4:0.15430335 18:0.15430335 31:0.15430335 55:0.15430335 64:0.15430335 105:0.15430335 160:0.6172134 174:0.15430335 261:0.3086067 297:0.15430335 307:0.15430335 355:0.15430335 394:0.15430335 635:0.15430335 695:0.15430335 1124:0.15430335 1199:0.15430335 1577:0.15430335 1797:0.15430335 1990:0.15430335 2084:0.15430335 2273:0.15430335 2696:0.15430335 4401:0.15430335 
0.01014010996765856 31:0.43643578 33:0.21821789 36:0.21821789 38:0.21821789 51:0.21821789 54:0.21821789 193:0.21821789 224:0.21821789 350:0.21821789 358:0.21821789 574:0.21821789 637:0.21821789 727:0.21821789 1345:0.21821789 1597:0.21821789 1856:0.21821789 2159:0.21821789 3567:0.21821789 
0.3455109138995819 31:0.72168784 69:0.14433757 86:0.14433757 143:0.14433757 194:0.14433757 214:0.14433757 218:0.14433757 288:0.14433757 410:0.14433757 439:0.14433757 562:0.14433757 660:0.4330127 731:0.14433757 980:0.14433757 1164:0.14433757 2338:0.14433757 
0.6541347907847667 1:0.2236068 18:0.2236068 21:0.2236068 26:0.2236068 78:0.4472136 227:0.2236068 258:0.2236068 284:0.2236068 307:0.2236068 328:0.2236068 350:0.2236068 639:0.2236068 892:0.2236068 990:0.2236068 1044:0.2236068 1476:0.2236068 2710:0.2236068 
0.41752210715433 1:0.21320072 118:0.21320072 137:0.21320072 160:0.21320072 181:0.21320072 186:0.21320072 229:0.21320072 265:0.42640143 273:0.21320072 282:0.21320072 308:0.21320072 342:0.21320072 393:0.21320072 449:0.21320072 1059:0.21320072 1290:0.21320072 1389:0.21320072 1416:0.21320072 1624:0.21320072 
0.6150880145867639 4:0.23570226 31:0.23570226 160:0.23570226 181:0.23570226 229:0.23570226 265:0.23570226 411:0.23570226 452:0.23570226 542:0.23570226 594:0.23570226 648:0.23570226 781:0.23570226 866:0.23570226 992:0.23570226 1178:0.23570226 1335:0.23570226 2065:0.23570226 4548:0.23570226 
0.1464035393660058 4:0.47434165 18:0.15811388 72:0.15811388 83:0.15811388 106:0.15811388 146:0.15811388 147:0.31622777 156:0.15811388 314:0.15811388 440:0.15811388 444:0.47434165 545:0.15811388 723:0.15811388 783:0.15811388 1003:0.15811388 1116:0.15811388 1216:0.15811388 2169:0.15811388 2585:0.15811388 3113:0.15811388 4547:0.15811388 
0.2765044930338632 50:0.25819889 64:0.25819889 73:0.25819889 102:0.25819889 110:0.25819889 185:0.25819889 212:0.25819889 350:0.25819889 1088:0.25819889 1124:0.25819889 1267:0.25819889 1751:0.25819889 1867:0.25819889 2197:0.25819889 4439:0.25819889 
1 4:0.17149859 11:0.17149859 31:0.34299717 51:0.34299717 439:0.34299717 472:0.34299717 754:0.51449576 790:0.34299717 1663:0.17149859 2102:0.17149859 3645:0.17149859 
0.08699689382911459 1:0.2236068 31:0.4472136 134:0.2236068 215:0.2236068 229:0.2236068 265:0.2236068 273:0.2236068 278:0.2236068 282:0.2236068 716:0.2236068 976:0.2236068 1029:0.2236068 1059:0.2236068 1178:0.2236068 1216:0.2236068 1838:0.2236068 2783:0.2236068 
0.1718888952352295 4:0.21821789 18:0.21821789 62:0.21821789 123:0.21821789 190:0.21821789 191:0.21821789 193:0.21821789 194:0.21821789 275:0.21821789 436:0.21821789 455:0.21821789 600:0.21821789 634:0.21821789 892:0.21821789 1243:0.43643578 2236:0.21821789 2506:0.21821789 3700:0.21821789 
0.1652030348845113 31:0.34641016 87:0.11547005 91:0.23094011 110:0.11547005 111:0.46188022 160:0.23094011 214:0.11547005 277:0.11547005 377:0.23094011 430:0.23094011 450:0.11547005 455:0.11547005 473:0.34641016 561:0.23094011 749:0.11547005 777:0.11547005 825:0.11547005 872:0.11547005 891:0.11547005 911:0.11547005 962:0.11547005 1074:0.11547005 1103:0.11547005 1224:0.11547005 1318:0.11547005 2082:0.11547005 3148:0.11547005 3893:0.11547005 4547:0.11547005 
0.8546369053510585 31:0.42640143 86:0.21320072 97:0.21320072 160:0.21320072 214:0.21320072 229:0.21320072 250:0.21320072 255:0.21320072 317:0.21320072 328:0.21320072 343:0.21320072 370:0.42640143 638:0.21320072 990:0.21320072 1164:0.21320072 3115:0.21320072 
0.4445027192524023 4:0.19611614 28:0.19611614 31:0.58834841 86:0.19611614 97:0.19611614 188:0.19611614 259:0.19611614 446:0.19611614 718:0.19611614 942:0.19611614 1119:0.19611614 1140:0.19611614 1278:0.19611614 1396:0.19611614 2635:0.19611614 2931:0.19611614 3150:0.19611614 3495:0.19611614 
0.1822327301463759 4:0.49319696 18:0.16439899 31:0.49319696 57:0.16439899 62:0.16439899 78:0.16439899 262:0.16439899 291:0.32879797 431:0.16439899 480:0.16439899 676:0.32879797 802:0.16439899 825:0.16439899 1683:0.16439899 2084:0.16439899 
0.09866918592339286 1:0.086066297 31:0.77459667 87:0.17213259 106:0.086066297 137:0.086066297 216:0.086066297 221:0.086066297 247:0.17213259 280:0.086066297 282:0.17213259 307:0.086066297 331:0.086066297 341:0.086066297 357:0.17213259 388:0.086066297 527:0.17213259 549:0.086066297 589:0.086066297 689:0.086066297 708:0.086066297 749:0.086066297 810:0.086066297 845:0.086066297 892:0.086066297 1046:0.086066297 1181:0.086066297 1197:0.086066297 1264:0.086066297 1283:0.086066297 1455:0.086066297 1609:0.17213259 2101:0.086066297 2197:0.086066297 2379:0.086066297 3169:0.086066297 3591:0.086066297 4432:0.086066297 
0.3217671639520249 1:0.1796053 4:0.1796053 28:0.53881591 31:0.1796053 33:0.1796053 35:0.1796053 46:0.1796053 151:0.1796053 248:0.1796053 250:0.1796053 291:0.1796053 319:0.1796053 668:0.1796053 707:0.1796053 772:0.1796053 851:0.1796053 859:0.1796053 924:0.1796053 1170:0.1796053 1951:0.1796053 2149:0.1796053 2194:0.1796053 3132:0.1796053 
0.3549691259132908 18:0.21320072 21:0.21320072 35:0.21320072 65:0.21320072 73:0.21320072 106:0.21320072 235:0.21320072 239:0.21320072 249:0.21320072 331:0.21320072 400:0.21320072 478:0.21320072 593:0.21320072 660:0.21320072 703:0.21320072 882:0.21320072 1045:0.21320072 1136:0.21320072 1157:0.21320072 1235:0.21320072 4520:0.21320072 4522:0.21320072 
0.3520370350779949 4:0.37139068 21:0.18569534 37:0.18569534 65:0.18569534 72:0.37139068 110:0.37139068 120:0.18569534 161:0.18569534 348:0.18569534 377:0.18569534 600:0.18569534 1263:0.18569534 1433:0.18569534 1651:0.18569534 1884:0.18569534 2004:0.18569534 2783:0.18569534 3325:0.18569534 3642:0.18569534 3661:0.18569534 
0.3253982027331025 1:0.16903085 4:0.16903085 133:0.16903085 134:0.16903085 149:0.50709255 160:0.16903085 201:0.16903085 215:0.16903085 220:0.16903085 226:0.16903085 362:0.16903085 435:0.16903085 453:0.16903085 537:0.16903085 550:0.16903085 599:0.16903085 612:0.16903085 654:0.16903085 798:0.16903085 878:0.16903085 907:0.16903085 1220:0.16903085 1358:0.16903085 1389:0.16903085 1525:0.16903085 2083:0.16903085 3863:0.16903085 
0.08352423125342584 31:0.68599434 51:0.17149859 54:0.17149859 65:0.17149859 69:0.17149859 73:0.17149859 137:0.17149859 149:0.17149859 270:0.17149859 307:0.17149859 319:0.17149859 455:0.17149859 1275:0.17149859 1447:0.17149859 1453:0.17149859 1530:0.17149859 1987:0.17149859 2787:0.17149859 2797:0.17149859 
0.2157232862697612 18:0.16222142 21:0.16222142 28:0.81110711 31:0.16222142 61:0.16222142 73:0.16222142 147:0.16222142 212:0.16222142 399:0.16222142 453:0.16222142 478:0.16222142 790:0.16222142 1136:0.16222142 3164:0.16222142 
1 4004:1 
1 1:0.625 4:0.125 50:0.125 69:0.125 87:0.125 91:0.125 97:0.125 162:0.125 216:0.125 297:0.125 424:0.125 432:0.125 526:0.125 527:0.125 600:0.375 618:0.125 651:0.125 874:0.125 1104:0.125 1113:0.125 1170:0.125 1280:0.125 1292:0.125 1586:0.125 1800:0.125 1877:0.125 2193:0.125 2617:0.125 2619:0.125 4139:0.125 4426:0.125 4529:0.125 
0.3522383326469072 28:0.40824829 31:0.20412415 57:0.20412415 65:0.20412415 134:0.20412415 156:0.20412415 160:0.20412415 202:0.20412415 229:0.40824829 438:0.40824829 458:0.20412415 519:0.20412415 1216:0.20412415 2213:0.20412415 4418:0.20412415 
0.5747983241404037 1:0.10540926 28:0.10540926 31:0.73786479 37:0.10540926 69:0.21081851 73:0.10540926 111:0.21081851 134:0.10540926 216:0.10540926 288:0.10540926 293:0.10540926 307:0.10540926 439:0.10540926 795:0.10540926 872:0.10540926 874:0.10540926 1092:0.10540926 1114:0.10540926 1136:0.10540926 1180:0.10540926 1496:0.31622777 1813:0.10540926 1845:0.10540926 2342:0.10540926 2572:0.10540926 2657:0.10540926 3528:0.10540926 3642:0.10540926 
0.07514357228454086 1:0.21821789 69:0.21821789 86:0.21821789 134:0.21821789 186:0.21821789 190:0.21821789 191:0.21821789 193:0.21821789 288:0.21821789 317:0.21821789 370:0.21821789 487:0.21821789 672:0.21821789 871:0.21821789 974:0.21821789 1136:0.21821789 2001:0.21821789 2636:0.21821789 2924:0.21821789 4107:0.21821789 4212:0.21821789 
0.3623010998176649 1:0.41702883 69:0.20851441 86:0.20851441 87:0.20851441 134:0.20851441 186:0.20851441 190:0.20851441 191:0.20851441 193:0.20851441 317:0.20851441 370:0.20851441 672:0.20851441 871:0.20851441 974:0.20851441 1136:0.20851441 2001:0.20851441 2636:0.20851441 2777:0.20851441 2924:0.20851441 4107:0.20851441 
0.01770379500119774 31:0.57735027 50:0.19245009 97:0.19245009 119:0.19245009 185:0.19245009 235:0.19245009 317:0.19245009 346:0.19245009 370:0.19245009 480:0.19245009 545:0.19245009 636:0.19245009 1174:0.19245009 1216:0.19245009 1361:0.19245009 1759:0.19245009 1799:0.19245009 2156:0.19245009 3479:0.19245009 
0.1898154657170075 1:0.33333333 28:0.33333333 31:0.5 137:0.16666667 187:0.33333333 244:0.16666667 309:0.16666667 370:0.16666667 377:0.16666667 415:0.16666667 479:0.16666667 536:0.16666667 582:0.16666667 600:0.16666667 707:0.16666667 898:0.16666667 1318:0.16666667 2594:0.16666667 3306:0.16666667 
0.2195372158854373 31:0.20851441 86:0.20851441 97:0.20851441 119:0.20851441 134:0.20851441 268:0.20851441 282:0.20851441 317:0.20851441 370:0.41702883 432:0.20851441 480:0.20851441 588:0.20851441 725:0.20851441 751:0.20851441 840:0.20851441 889:0.20851441 2443:0.20851441 2647:0.20851441 2930:0.20851441 3604:0.20851441 
0.4955782042327191 4:0.19611614 18:0.19611614 28:0.19611614 31:0.58834841 152:0.19611614 181:0.19611614 184:0.19611614 255:0.19611614 532:0.19611614 619:0.19611614 649:0.19611614 821:0.19611614 1034:0.19611614 1136:0.19611614 1235:0.19611614 1424:0.19611614 3362:0.19611614 4460:0.19611614 
0.9550333800336693 4:0.37796447 18:0.18898224 31:0.56694671 38:0.18898224 65:0.18898224 516:0.18898224 537:0.18898224 545:0.18898224 558:0.18898224 582:0.18898224 656:0.18898224 957:0.18898224 988:0.18898224 2075:0.18898224 2104:0.18898224 2769:0.18898224 2882:0.18898224 
0.6878046778155557 28:0.15811388 31:0.63245553 86:0.15811388 97:0.15811388 214:0.15811388 229:0.15811388 239:0.15811388 243:0.15811388 288:0.15811388 343:0.15811388 355:0.15811388 370:0.15811388 392:0.15811388 443:0.15811388 640:0.15811388 945:0.15811388 1124:0.15811388 1384:0.15811388 1664:0.15811388 1873:0.15811388 1991:0.15811388 2930:0.15811388 3085:0.15811388 3861:0.15811388 3912:0.15811388 
0.5901968920413705 4:0.14586499 31:0.72932496 38:0.14586499 57:0.14586499 99:0.14586499 259:0.14586499 264:0.14586499 336:0.14586499 464:0.14586499 550:0.14586499 555:0.14586499 633:0.14586499 648:0.14586499 718:0.14586499 766:0.14586499 1428:0.14586499 1600:0.14586499 1667:0.14586499 1811:0.14586499 1896:0.14586499 1901:0.14586499 2635:0.14586499 3091:0.14586499 
0.05627692380062596 21:0.2 31:0.2 46:0.2 65:0.2 83:0.2 149:0.4 193:0.2 263:0.2 291:0.2 294:0.2 375:0.2 394:0.2 404:0.2 479:0.2 547:0.4 953:0.2 1217:0.2 1525:0.2 2498:0.2 
0.2977441739061934 4:0.3380617 28:0.16903085 82:0.16903085 152:0.50709255 301:0.3380617 326:0.16903085 377:0.16903085 410:0.16903085 437:0.16903085 689:0.16903085 750:0.16903085 773:0.16903085 1034:0.16903085 1157:0.16903085 1264:0.16903085 1424:0.16903085 1489:0.16903085 1593:0.16903085 1705:0.16903085 2347:0.16903085 4076:0.16903085 
0.6657377317180222 1:0.18569534 28:0.55708601 31:0.37139068 57:0.18569534 175:0.18569534 186:0.18569534 278:0.18569534 335:0.18569534 480:0.18569534 605:0.18569534 676:0.18569534 1041:0.18569534 1198:0.18569534 1208:0.18569534 1577:0.18569534 2267:0.18569534 3602:0.18569534 4330:0.18569534 
0.3245209104366686 4:0.16222142 31:0.48666426 118:0.32444284 149:0.16222142 154:0.16222142 187:0.16222142 220:0.16222142 230:0.16222142 316:0.16222142 377:0.16222142 386:0.16222142 599:0.32444284 600:0.16222142 678:0.16222142 707:0.16222142 825:0.16222142 878:0.16222142 1273:0.16222142 1292:0.16222142 1524:0.16222142 1833:0.16222142 2674:0.16222142 2696:0.16222142 3535:0.16222142 
0.1921331324695588 4:0.22941573 31:0.22941573 72:0.22941573 170:0.22941573 177:0.22941573 202:0.22941573 375:0.22941573 443:0.22941573 551:0.22941573 608:0.22941573 649:0.22941573 752:0.22941573 800:0.22941573 979:0.22941573 1050:0.22941573 1078:0.22941573 1089:0.22941573 1684:0.22941573 3695:0.22941573 
0.4120531079827254 31:0.56694671 35:0.18898224 65:0.18898224 99:0.18898224 137:0.18898224 185:0.18898224 200:0.18898224 221:0.18898224 377:0.18898224 523:0.18898224 648:0.18898224 688:0.18898224 874:0.18898224 1288:0.18898224 1381:0.18898224 1524:0.18898224 1833:0.18898224 1924:0.18898224 4071:0.18898224 4280:0.18898224 
0.3394411313257117 31:0.32879797 57:0.16439899 65:0.16439899 208:0.16439899 211:0.32879797 235:0.16439899 305:0.32879797 321:0.16439899 555:0.16439899 689:0.16439899 768:0.16439899 1061:0.16439899 1141:0.16439899 1288:0.16439899 1303:0.32879797 1341:0.32879797 1712:0.16439899 1839:0.16439899 1913:0.16439899 2223:0.16439899 2444:0.16439899 3040:0.16439899 
0.3406697229299041 4:0.16012815 21:0.16012815 31:0.64051262 46:0.48038446 288:0.16012815 439:0.16012815 596:0.16012815 600:0.16012815 818:0.16012815 1113:0.16012815 1237:0.16012815 1319:0.16012815 1651:0.16012815 3116:0.16012815 4077:0.16012815 4194:0.16012815 
0.1196471376421332 28:0.18569534 31:0.37139068 86:0.18569534 97:0.37139068 113:0.37139068 137:0.18569534 214:0.18569534 235:0.18569534 343:0.18569534 1028:0.18569534 1274:0.18569534 1506:0.37139068 1524:0.18569534 1833:0.18569534 2734:0.18569534 4092:0.18569534 4416:0.18569534 
0.03225848757748494 4:0.23570226 21:0.23570226 61:0.23570226 121:0.47140452 243:0.23570226 288:0.23570226 331:0.23570226 436:0.23570226 445:0.23570226 663:0.23570226 705:0.23570226 857:0.23570226 1219:0.23570226 1292:0.23570226 3943:0.23570226 
0.3998595033620411 18:0.39223227 31:0.58834841 35:0.19611614 99:0.19611614 105:0.19611614 220:0.19611614 284:0.19611614 870:0.19611614 1176:0.19611614 1206:0.19611614 1341:0.19611614 1530:0.19611614 1955:0.19611614 2441:0.19611614 3576:0.19611614 
0.1597974389068475 1:0.68680282 4:0.13736056 18:0.13736056 28:0.27472113 31:0.41208169 123:0.13736056 237:0.13736056 515:0.13736056 537:0.13736056 582:0.13736056 746:0.13736056 804:0.13736056 1074:0.13736056 1175:0.13736056 1216:0.13736056 1739:0.13736056 2500:0.13736056 4509:0.13736056 
0.3322008502336531 1:0.23094011 28:0.23094011 31:0.69282032 37:0.11547005 91:0.11547005 174:0.11547005 186:0.11547005 187:0.11547005 246:0.11547005 280:0.11547005 429:0.11547005 566:0.23094011 600:0.11547005 699:0.11547005 790:0.11547005 972:0.23094011 1369:0.11547005 1510:0.11547005 1674:0.11547005 1815:0.11547005 1989:0.11547005 2199:0.23094011 2563:0.11547005 2593:0.11547005 3120:0.11547005 
0.1434143071838779 18:0.20412415 46:0.40824829 61:0.20412415 102:0.20412415 154:0.20412415 185:0.20412415 214:0.61237244 235:0.20412415 270:0.20412415 660:0.20412415 1201:0.20412415 4079:0.20412415 4557:0.20412415 
0.5213810483492721 4:0.094491118 28:0.094491118 31:0.37796447 110:0.094491118 111:0.094491118 146:0.18898224 176:0.094491118 196:0.18898224 354:0.56694671 444:0.28347335 723:0.094491118 746:0.18898224 1027:0.094491118 1242:0.094491118 1395:0.47245559 2390:0.094491118 3280:0.18898224 3441:0.094491118 
0.5694736953572163 4:0.15811388 28:0.79056942 31:0.31622777 181:0.15811388 192:0.15811388 265:0.15811388 273:0.15811388 410:0.15811388 479:0.15811388 866:0.15811388 976:0.15811388 1427:0.15811388 3974:0.15811388 
1 28:0.14285714 31:0.57142857 146:0.14285714 160:0.14285714 181:0.14285714 213:0.14285714 229:0.14285714 250:0.14285714 265:0.14285714 268:0.28571429 291:0.42857143 588:0.14285714 678:0.14285714 866:0.14285714 940:0.14285714 951:0.14285714 1049:0.14285714 1335:0.28571429 1345:0.14285714 1471:0.14285714 
0.08590990958767847 1:0.32879797 28:0.16439899 31:0.16439899 37:0.16439899 87:0.16439899 152:0.16439899 160:0.16439899 190:0.16439899 191:0.16439899 229:0.16439899 307:0.16439899 322:0.16439899 342:0.16439899 375:0.32879797 490:0.16439899 596:0.16439899 669:0.16439899 944:0.16439899 1061:0.16439899 1070:0.16439899 1208:0.16439899 1395:0.32879797 1445:0.16439899 1553:0.16439899 1900:0.16439899 2396:0.16439899 2633:0.16439899 4167:0.16439899 
0.6520377677599608 4:0.10259784 31:0.82078268 64:0.10259784 65:0.10259784 72:0.10259784 91:0.10259784 123:0.10259784 143:0.10259784 177:0.10259784 188:0.10259784 257:0.10259784 294:0.10259784 335:0.10259784 455:0.10259784 536:0.10259784 537:0.10259784 573:0.10259784 619:0.10259784 960:0.10259784 976:0.10259784 1058:0.10259784 1266:0.10259784 1292:0.10259784 1376:0.10259784 1434:0.10259784 1563:0.10259784 1738:0.10259784 1846:0.10259784 2472:0.10259784 2633:0.10259784 3144:0.10259784 3977:0.10259784 
0.1783597276139274 18:0.17407766 20:0.17407766 28:0.69631062 31:0.17407766 57:0.17407766 137:0.17407766 259:0.17407766 359:0.17407766 388:0.17407766 401:0.17407766 435:0.17407766 548:0.17407766 718:0.17407766 888:0.17407766 917:0.17407766 1360:0.17407766 1495:0.17407766 2367:0.17407766 
0.2230251715888033 1:0.24253563 21:0.24253563 31:0.24253563 106:0.24253563 174:0.24253563 198:0.24253563 342:0.24253563 399:0.24253563 450:0.24253563 936:0.24253563 992:0.24253563 994:0.24253563 1060:0.24253563 1447:0.24253563 1595:0.24253563 1853:0.24253563 3665:0.24253563 
0.4744939372054552 4:0.28005602 31:0.70014004 54:0.14002801 68:0.14002801 91:0.14002801 119:0.14002801 121:0.28005602 176:0.14002801 228:0.14002801 250:0.14002801 316:0.14002801 653:0.14002801 747:0.14002801 816:0.14002801 964:0.14002801 993:0.14002801 1033:0.14002801 1206:0.14002801 1345:0.14002801 2702:0.14002801 4398:0.14002801 
0.5700874833757318 1:0.16222142 4:0.16222142 112:0.32444284 186:0.16222142 194:0.16222142 216:0.16222142 221:0.16222142 251:0.48666426 354:0.16222142 453:0.16222142 459:0.16222142 556:0.16222142 600:0.16222142 660:0.32444284 816:0.16222142 903:0.16222142 2031:0.16222142 2401:0.16222142 2427:0.16222142 2991:0.32444284 3064:0.16222142 
0.008221381717335878 1:0.40824829 28:0.20412415 87:0.20412415 114:0.20412415 146:0.20412415 201:0.20412415 216:0.20412415 218:0.20412415 331:0.20412415 566:0.20412415 699:0.20412415 761:0.20412415 772:0.20412415 796:0.20412415 1510:0.20412415 2042:0.20412415 2153:0.20412415 2290:0.20412415 2705:0.20412415 2961:0.20412415 3522:0.20412415 
0.8470412229553358 28:0.19245009 36:0.19245009 37:0.19245009 56:0.19245009 69:0.19245009 82:0.19245009 102:0.19245009 126:0.19245009 269:0.19245009 290:0.19245009 291:0.19245009 416:0.19245009 605:0.19245009 671:0.19245009 689:0.38490018 695:0.19245009 950:0.19245009 1009:0.19245009 1270:0.19245009 1395:0.19245009 1519:0.19245009 2161:0.19245009 2786:0.19245009 3699:0.19245009 
0.8780429664244899 31:0.30151134 194:0.30151134 262:0.30151134 410:0.30151134 449:0.30151134 453:0.30151134 634:0.30151134 695:0.30151134 802:0.30151134 3656:0.30151134 4525:0.30151134 
0.6983216466476075 4:0.22941573 69:0.22941573 123:0.22941573 194:0.22941573 372:0.22941573 425:0.22941573 551:0.45883147 654:0.22941573 780:0.22941573 1078:0.22941573 1092:0.22941573 1180:0.22941573 1343:0.22941573 2170:0.22941573 2946:0.22941573 3700:0.22941573 
0.9467213562125089 28:0.21320072 31:0.42640143 187:0.21320072 276:0.42640143 312:0.21320072 355:0.21320072 518:0.21320072 677:0.21320072 704:0.21320072 753:0.21320072 908:0.21320072 1433:0.21320072 1763:0.21320072 1806:0.21320072 2584:0.21320072 3967:0.21320072 
0.2389470332028886 4:0.24253563 18:0.12126781 31:0.72760688 64:0.12126781 87:0.12126781 151:0.24253563 291:0.12126781 297:0.12126781 301:0.12126781 420:0.12126781 439:0.12126781 575:0.24253563 780:0.12126781 916:0.12126781 1136:0.12126781 1197:0.24253563 1558:0.12126781 1564:0.12126781 1791:0.12126781 1931:0.12126781 3019:0.12126781 
0.6103278140050967 4:0.22941573 28:0.22941573 31:0.45883147 92:0.22941573 216:0.22941573 224:0.22941573 488:0.22941573 600:0.22941573 952:0.22941573 1138:0.22941573 1196:0.22941573 1216:0.22941573 2194:0.22941573 3011:0.22941573 3438:0.22941573 3658:0.22941573 
0.03203643275660047 21:0.21821789 31:0.21821789 46:0.21821789 105:0.21821789 137:0.21821789 215:0.21821789 220:0.43643578 263:0.21821789 377:0.21821789 402:0.21821789 640:0.21821789 701:0.21821789 747:0.21821789 1089:0.21821789 1151:0.21821789 1372:0.21821789 1856:0.21821789 3499:0.21821789 
1 1:0.14285714 28:0.71428571 89:0.14285714 91:0.14285714 110:0.14285714 177:0.14285714 196:0.14285714 446:0.14285714 479:0.14285714 540:0.14285714 545:0.14285714 566:0.14285714 805:0.14285714 873:0.14285714 1146:0.14285714 1285:0.14285714 1344:0.14285714 1510:0.14285714 1760:0.14285714 2164:0.14285714 3280:0.28571429 4283:0.14285714 
0.298041518674361 4:0.57735027 69:0.19245009 99:0.19245009 221:0.19245009 244:0.19245009 247:0.19245009 282:0.19245009 341:0.19245009 357:0.19245009 527:0.19245009 690:0.19245009 782:0.19245009 839:0.19245009 965:0.19245009 1056:0.19245009 1180:0.19245009 1618:0.19245009 1740:0.19245009 2617:0.19245009 
0.505842788175046 1:0.10050378 4:0.30151134 18:0.10050378 28:0.80403025 37:0.10050378 62:0.10050378 78:0.10050378 87:0.10050378 91:0.10050378 177:0.10050378 187:0.10050378 285:0.10050378 399:0.10050378 404:0.10050378 429:0.10050378 436:0.10050378 450:0.10050378 674:0.10050378 698:0.10050378 1221:0.10050378 1280:0.10050378 1447:0.10050378 1583:0.10050378 1760:0.10050378 2150:0.10050378 2634:0.10050378 3148:0.10050378 4545:0.10050378 
0.1531856948771607 1:0.15430335 4:0.15430335 20:0.15430335 28:0.6172134 31:0.15430335 35:0.15430335 64:0.15430335 99:0.15430335 176:0.15430335 297:0.15430335 796:0.15430335 912:0.15430335 1136:0.15430335 1414:0.3086067 1503:0.15430335 1855:0.15430335 2166:0.15430335 2218:0.3086067 3078:0.15430335 3478:0.15430335 3954:0.15430335 
0.1334095792830544 28:0.4 31:0.2 86:0.2 137:0.2 147:0.2 194:0.2 215:0.2 272:0.2 287:0.2 308:0.2 343:0.2 392:0.2 452:0.2 453:0.2 520:0.2 745:0.2 840:0.2 921:0.2 945:0.2 1263:0.2 1274:0.2 1362:0.2 
0.1054011303678877 4:0.32444284 28:0.48666426 31:0.32444284 50:0.16222142 102:0.16222142 185:0.16222142 353:0.16222142 424:0.16222142 464:0.16222142 671:0.16222142 723:0.16222142 787:0.16222142 879:0.16222142 988:0.16222142 1157:0.16222142 1242:0.16222142 1381:0.16222142 1524:0.16222142 1833:0.16222142 3525:0.16222142 3652:0.16222142 4032:0.16222142 4384:0.16222142 4444:0.16222142 
0.3998509815593931 1:0.39223227 4:0.19611614 28:0.19611614 61:0.19611614 64:0.19611614 87:0.19611614 120:0.19611614 186:0.19611614 212:0.19611614 603:0.19611614 1515:0.39223227 1561:0.58834841 
0.004821392751476004 1:0.20851441 4:0.41702883 46:0.20851441 89:0.20851441 102:0.20851441 161:0.20851441 181:0.20851441 185:0.20851441 230:0.20851441 346:0.20851441 350:0.20851441 490:0.20851441 529:0.20851441 703:0.20851441 710:0.20851441 992:0.20851441 1062:0.20851441 1488:0.20851441 2616:0.20851441 3049:0.20851441 
0.437029983810438 1:0.13867505 4:0.2773501 28:0.2773501 31:0.2773501 64:0.13867505 86:0.13867505 97:0.13867505 133:0.13867505 134:0.2773501 168:0.13867505 177:0.13867505 274:0.13867505 293:0.13867505 370:0.13867505 447:0.13867505 537:0.13867505 600:0.13867505 913:0.13867505 1020:0.13867505 1026:0.13867505 1119:0.13867505 1182:0.13867505 1197:0.13867505 1288:0.13867505 1430:0.13867505 1457:0.13867505 1470:0.2773501 1575:0.2773501 1867:0.13867505 2161:0.13867505 2203:0.13867505 3163:0.13867505 4089:0.13867505 4173:0.13867505 
0.7968410923860871 28:0.6882472 31:0.11470787 37:0.11470787 40:0.11470787 83:0.22941573 137:0.11470787 146:0.11470787 181:0.22941573 289:0.11470787 312:0.11470787 600:0.11470787 696:0.11470787 903:0.11470787 931:0.11470787 944:0.11470787 1031:0.11470787 1061:0.11470787 1136:0.11470787 1152:0.22941573 1437:0.22941573 1441:0.22941573 2272:0.11470787 2633:0.11470787 2638:0.11470787 2792:0.11470787 3021:0.11470787 
0.3319605974483553 18:0.18898224 31:0.56694671 64:0.18898224 65:0.18898224 110:0.18898224 114:0.18898224 146:0.18898224 194:0.18898224 354:0.18898224 355:0.18898224 375:0.18898224 459:0.18898224 579:0.18898224 619:0.18898224 671:0.18898224 713:0.18898224 723:0.18898224 1155:0.18898224 1576:0.18898224 2593:0.18898224 
0.3658465949378242 28:0.25 31:0.5 110:0.25 194:0.25 205:0.25 244:0.25 482:0.25 585:0.25 647:0.25 1679:0.25 2626:0.25 3024:0.25 4188:0.25 
0.01503661468112587 4:0.4 18:0.2 20:0.2 59:0.2 150:0.4 181:0.2 235:0.2 257:0.2 326:0.2 327:0.2 376:0.2 648:0.2 754:0.2 765:0.2 826:0.2 1027:0.2 1187:0.2 1309:0.2 2725:0.2 
0.1682965335084229 4:0.4 18:0.2 20:0.2 59:0.2 150:0.4 181:0.2 235:0.2 257:0.2 326:0.2 327:0.2 376:0.2 648:0.2 754:0.2 765:0.2 826:0.2 1027:0.2 1187:0.2 1309:0.2 2725:0.2 
0.754428519378206 38:0.37139068 62:0.18569534 70:0.18569534 72:0.18569534 91:0.18569534 184:0.18569534 212:0.18569534 250:0.18569534 280:0.37139068 536:0.18569534 563:0.55708601 646:0.18569534 2788:0.18569534 3043:0.18569534 3361:0.18569534 
0.6744260781931966 2:0.15430335 4:0.15430335 28:0.15430335 31:0.6172134 50:0.15430335 65:0.15430335 86:0.3086067 99:0.15430335 176:0.15430335 198:0.15430335 510:0.15430335 723:0.15430335 839:0.3086067 904:0.15430335 1031:0.15430335 1239:0.15430335 1292:0.15430335 2467:0.15430335 2784:0.15430335 2794:0.15430335 3903:0.15430335 
0.1205983700112642 18:0.3380617 33:0.16903085 64:0.16903085 78:0.16903085 82:0.16903085 86:0.16903085 92:0.3380617 213:0.16903085 269:0.16903085 284:0.16903085 337:0.16903085 404:0.16903085 538:0.16903085 554:0.16903085 611:0.16903085 735:0.3380617 898:0.16903085 912:0.16903085 1068:0.16903085 1400:0.16903085 1587:0.16903085 1808:0.16903085 2111:0.16903085 3541:0.16903085 3873:0.16903085 4074:0.16903085 
0.2778778491212975 1:0.29488391 37:0.14744196 64:0.14744196 110:0.14744196 118:0.14744196 134:0.14744196 174:0.14744196 227:0.14744196 264:0.14744196 276:0.14744196 289:0.14744196 321:0.14744196 377:0.14744196 414:0.14744196 426:0.14744196 429:0.14744196 437:0.14744196 444:0.29488391 446:0.14744196 525:0.14744196 750:0.14744196 908:0.14744196 1073:0.29488391 1798:0.14744196 1836:0.14744196 2104:0.14744196 2473:0.29488391 2903:0.14744196 3120:0.14744196 3281:0.14744196 3315:0.14744196 3944:0.14744196 4352:0.14744196 4438:0.14744196 
0.2369104572470727 33:0.26726124 62:0.26726124 73:0.26726124 111:0.26726124 150:0.26726124 205:0.26726124 227:0.26726124 407:0.26726124 447:0.26726124 482:0.26726124 682:0.26726124 825:0.26726124 1557:0.26726124 1651:0.26726124 
0.9064188127087252 4:0.1796053 35:0.1796053 65:0.1796053 184:0.1796053 185:0.3592106 187:0.1796053 258:0.1796053 286:0.1796053 294:0.1796053 301:0.1796053 345:0.1796053 358:0.1796053 536:0.1796053 599:0.1796053 648:0.1796053 775:0.1796053 936:0.1796053 965:0.1796053 1455:0.1796053 1603:0.1796053 1837:0.1796053 1987:0.1796053 2024:0.1796053 2104:0.1796053 2149:0.1796053 2472:0.1796053 2752:0.1796053 3125:0.1796053 
0.1865189877989259 4:0.55708601 50:0.37139068 92:0.18569534 190:0.18569534 191:0.18569534 230:0.18569534 246:0.18569534 348:0.18569534 518:0.18569534 893:0.18569534 900:0.18569534 1049:0.18569534 1140:0.18569534 1202:0.18569534 1502:0.18569534 1999:0.18569534 2207:0.18569534 3857:0.18569534 
0.5127711392469467 4:0.40824829 18:0.20412415 57:0.20412415 109:0.20412415 146:0.20412415 176:0.20412415 185:0.20412415 202:0.20412415 520:0.20412415 592:0.20412415 671:0.20412415 726:0.20412415 840:0.20412415 912:0.20412415 1455:0.20412415 2012:0.20412415 3078:0.20412415 3170:0.20412415 3954:0.20412415 3976:0.20412415 4102:0.20412415 
0.7358635244463946 1:0.36514837 4:0.18257419 31:0.18257419 37:0.18257419 65:0.18257419 272:0.18257419 287:0.18257419 307:0.18257419 439:0.18257419 512:0.18257419 566:0.36514837 747:0.18257419 779:0.18257419 791:0.18257419 795:0.36514837 909:0.18257419 1510:0.18257419 1815:0.18257419 2420:0.18257419 3125:0.18257419 3468:0.18257419 
0.009255062327176294 20:0.40824829 61:0.40824829 126:0.40824829 151:0.40824829 198:0.40824829 1752:0.40824829 
0.6574965710653403 4:0.21821789 28:0.21821789 31:0.43643578 150:0.21821789 181:0.21821789 208:0.21821789 217:0.21821789 218:0.21821789 355:0.21821789 590:0.21821789 648:0.21821789 704:0.21821789 790:0.21821789 850:0.21821789 1115:0.21821789 1174:0.21821789 2487:0.21821789 4246:0.21821789 
0.4308368124454304 4:0.17407766 18:0.17407766 31:0.17407766 64:0.17407766 72:0.17407766 160:0.17407766 229:0.17407766 272:0.17407766 287:0.17407766 336:0.17407766 490:0.34815531 760:0.17407766 785:0.17407766 796:0.17407766 850:0.17407766 996:0.17407766 1135:0.17407766 1395:0.52223297 1743:0.17407766 2668:0.17407766 2695:0.17407766 2932:0.17407766 
0.4501350825150512 4:0.21821789 28:0.32732684 31:0.54554473 65:0.21821789 83:0.10910895 160:0.10910895 190:0.10910895 191:0.10910895 229:0.10910895 250:0.10910895 346:0.10910895 377:0.21821789 392:0.10910895 425:0.10910895 429:0.10910895 436:0.21821789 671:0.10910895 745:0.10910895 807:0.10910895 921:0.10910895 996:0.10910895 1026:0.10910895 1034:0.10910895 1050:0.10910895 1056:0.10910895 1144:0.10910895 1157:0.10910895 1241:0.10910895 1385:0.10910895 1806:0.10910895 1944:0.10910895 2161:0.21821789 2216:0.10910895 2219:0.10910895 2227:0.10910895 2413:0.10910895 4154:0.10910895 
1 31:0.74420841 99:0.12403473 211:0.12403473 218:0.12403473 305:0.12403473 317:0.24806947 370:0.3721042 480:0.12403473 533:0.12403473 600:0.12403473 732:0.12403473 1077:0.12403473 1457:0.12403473 1497:0.12403473 1522:0.12403473 1549:0.12403473 2166:0.12403473 2698:0.12403473 3684:0.12403473 
