svm_type c_svc
kernel_type rbf
gamma 0.353553
nr_class 9
total_sv 65
rho 0.307758 0.145848 0.185178 0.219365 0.280341 -0.00524729 -0.0351991 -0.597529 -0.167909 -0.113395 -0.0687701 -0.161765 -0.288031 -0.338863 -0.745137 0.0397044 0.0856538 0.126839 -0.161378 -0.168925 -0.658316 0.0478202 -0.0541119 -0.0764558 -0.0763435 -0.684025 0.0320954 -0.13311 -0.251583 -0.708249 -0.0389965 -0.146432 -0.755395 0.117643 -0.575806 -0.58649
label -4 -3 -2 -1 0 1 2 3 4
nr_sv 4 9 7 9 7 16 7 5 1
SV
2.262132610520189 1.981771239402068 2.050492859576479 2.108118588826302 2.748806426517873 1.720342717296007 1.668501840668424 0.6971499544298926 5:0.41645077 25:0.46659672 28:0.46659672 30:0.46659672 114:0.41645077 
2.677646904176694 2.260641366371274 2.338593094181563 2.405495403962673 2.525491877773054 1.963230806438255 1.902862735098151 1.046662748848726 19:0.39004082 21:0.39004082 24:0.29531158 27:0.78008165 
2.262871154052247 1.981741401079659 2.049108534285125 2.109540766497246 2.139101469814464 1.720342717296008 1.669661318316106 0.6955364813771952 5:0.45806191 22:0.51321837 26:0.51321837 29:0.51321837 
5.293781918132075 2.954338312672767 2.81171651098746 2.428488413928927 3.49370359072675 1.961624172491456 2.126732536586257 0.7934330278612256 15:0.29962277 20:0.39573494 23:0.39573494 43:0.12273189 62:0.20779252 93:0.19939663 115:0.35320463 116:0.35320463 117:0.35320463 118:0.35320463 
-0.869710016756109 0.6425470056953122 0.3662801173605923 0.687141984561872 0 0.5265710161032003 0.5687712149400438 0.832759600209558 17:0.5368531 24:0.49795364 59:0.58700322 62:0.34533771 
-1.365333493647018 1.641754993399127 1.748770958015491 1.837087818335689 1.654561041366744 1.404912167198968 1.304892367871944 0.502796271831102 45:0.37796447 47:0.37796447 48:0.37796447 49:0.37796447 50:0.37796447 51:0.37796447 58:0.37796447 
-1.365833169558474 1.641633639715676 1.749373977325437 1.836303763317479 1.65332214775772 1.404472595899787 1.303929853248015 0.502796271831102 46:0.5 52:0.5 54:0.5 57:0.5 
-1.337452745737307 1.641293498874766 1.595512663016371 1.836420629720523 1.928351077260986 1.404096000083199 1.303832331096657 0.4916145519657467 16:0.39384114 18:0.39384114 40:0.36530408 44:0.4306318 53:0.4306318 55:0.4306318 
-0.9330248844747575 1.482444580327972 1.086969523003511 1.303274036119576 12.02240787293914 0.9957990473456414 2.497860952565435 0.1788785968655463 62:1 
-4.231403577692066 1.718895770701112 2.040571904938474 1.476879204023523 1.476067307166556 1.129302868577764 1.223728958885296 0.3959915893079629 62:0.30731099 93:0.29489404 116:0.5223656 117:0.5223656 118:0.5223656 
-0.9499904037436597 1.352578035956341 1.450665030902353 1.528630453590804 0.8010752583550002 1.168326796055808 1.048547912767148 0.1181803462256942 17:1 
-1.36571266098069 1.641140623290286 1.748468081111293 1.837087818335689 1.653474544416835 1.404096000083199 1.304892367871944 0.5035092966607775 56:1 
-0.07797163429112418 0 0.4300829448107766 0 2.737997701678453 0 0 0.03214980481859577 16:0.39300799 17:0.39300799 18:0.39300799 24:0.3645313 40:0.3645313 43:0.14931981 59:0.42972083 62:0.25280748 
-1.684742428852939 -2.304014239162243 2.050052753770609 2.141994569917854 2.22338346236357 1.653463339142011 1.639656111341567 0.6736983664295217 101:1 
-1.375640129041081 -2.001032137869907 1.21628616896416 1.487619626573767 1.805450006065047 1.148434369434897 1.354829168663425 0.4678723034646031 15:0.34443515 31:0.40603086 32:0.40603086 35:0.40603086 36:0.40603086 37:0.40603086 62:0.23887053 
-1.646338195118676 -1.548456092047082 2.440171608742457 1.52514409164427 1.522627003635847 1.1765597262888 1.116269977461581 0.4801597552515761 15:0.78134643 34:0.46053772 61:0.42119207 
-0.5918323157687645 -0.7462496314900137 0.6626169047993038 0.6739549080762719 0.714476368616929 0.5214837029628312 0.5300050605792822 0.2126651592645197 15:0.49706983 31:0.19532045 32:0.19532045 34:0.19532045 35:0.19532045 36:0.19532045 37:0.19532045 61:0.17863341 62:0.11490826 94:0.21883951 95:0.21883951 96:0.21883951 97:0.21883951 100:0.21883951 103:0.21883951 106:0.21883951 107:0.21883951 108:0.21883951 110:0.21883951 
-1.24876913284738 -1.686164973464986 1.732038257413316 1.774215169524715 1.830106339134046 1.479603768007798 1.209849909832888 0.4823606684339792 6:0.2106314 33:0.38824091 93:0.21917586 99:0.43499004 102:0.43499004 105:0.43499004 109:0.43499004 
-1.463785238571944 -1.929062459269018 2.608958299075102 2.589767403677892 2.642351965941924 2.366592514035548 1.407873149631615 0.5274743798503926 6:0.39690939 93:0.4130104 104:0.81968612 
-1.167384879324985 -1.547308614657343 1.940134124991314 1.941595240000571 1.985461990087956 1.738930181169801 1.123637213068101 0.4273787389128943 6:0.32033536 33:0.59044993 93:0.33333007 98:0.66154758 
-0 -0 -0 0 32 0 0 0 43:1 
-0.005067054648211118 -0 -0 0 32 0 0 0 43:1 
-2.021524147405585 -2.656318839223382 -3.538730003030646 2.066988821297437 0 1.821570374371891 2.218210937810921 0.6229738367484015 93:1 
-1.364523678032524 -1.8488607636758 -1.592517097052896 1.751422966412553 2.427511855217439 0.2983079364281026 0.2975600481452517 0.5237200281914587 43:0.23860911 111:0.68668249 112:0.68668249 
-1.606714643855445 -2.196962747637841 -2.80453485449638 2.066988821297437 1.865669251603861 1.821708558334026 1.82190193320304 0.6235565325400175 61:1 
-0 -0 -0 0 3.690634059357408 0 0 0 43:0.52417881 93:0.85160823 
-1.606714643855445 -2.196962747637842 -1.894087178509853 2.066749773890645 1.866154163096301 1.822507465655598 1.82266370652763 0.6235565325400179 113:1 
-1.324269496692149 -1.791590383697568 -1.543424442873609 1.700486040975912 32 32 32 0.5082751220755513 39:0.95905194 43:0.28323026 
-1.321097334541268 -1.525999718611866 -1.276964541792878 1.671448971315863 32 0 0 0.4195342336555519 43:1 
-1.38818730457994 -1.900946418373142 -1.627448325951534 -1.69442147707897 2.228412843261892 1.542429321131144 1.331672912584542 0.5180017737932444 10:0.38186499 41:0.34924068 65:0.42784637 66:0.42784637 72:0.42784637 84:0.42784637 
-1.388964066791616 -1.902085315530305 -1.627448325951534 -1.694523498754075 2.013733466386698 1.542429321131144 1.332612920855967 0.5193321366607051 10:0.2135815 41:0.19533435 64:0.23929942 67:0.23929942 69:0.23929942 70:0.23929942 71:0.23929942 73:0.23929942 74:0.23929942 75:0.23929942 77:0.23929942 80:0.23929942 81:0.23929942 83:0.23929942 85:0.23929942 89:0.23929942 91:0.23929942 92:0.23929942 
-1.576070152532576 -2.107337030345291 -1.804311547927257 -2.204512703979176 2.416667007652416 1.710335669867854 1.475906331850308 0.5756211329426084 43:0.17625425 68:0.56831166 87:0.56831166 88:0.56831166 
-0.8101445164522617 -1.103116720066595 -0.9491602367705224 -0.9877197347723791 1.09431922495669 0.8973186905780017 0.7755524346019187 0.2983832030052986 7:0.33164704 8:0.33164704 9:0.33164704 11:0.33164704 12:0.33164704 13:0.33164704 14:0.33164704 42:0.30331306 90:0.37158155 
-1.540106461225036 -2.10866503907383 -1.803313168119154 -1.878262129356422 2.035625832171826 1.709943519687539 1.476583632196003 0.5760259498886228 63:0.40824829 76:0.40824829 78:0.40824829 79:0.40824829 82:0.40824829 86:0.40824829 
-0.8088591738077092 -1.112569703411384 -0.9464853568269909 -0.9863269345092532 1.280233706108404 0.9000116555462402 0.7755524346019199 0.3067012758613122 7:0.35722418 8:0.35722418 9:0.35722418 11:0.35722418 12:0.35722418 13:0.35722418 14:0.35722418 42:0.32670504 
-1.539311497826009 -2.108105481204607 -3.376124047868348 -1.878318916739571 32 32 1.475981036094825 0.5756211329426084 6:1 
-0.3013556704645575 -0.7022400586369823 -0.8440543119725997 -0 -0.6431411737411686 2.855842766102264 0 0.1519485612229092 60:1 
-0 -0 -0 -32 -0 0 0 0 43:1 
-0 -0 -0 -31.99066053613029 -0 0 0 0 43:1 
-1.037379417289588 -1.020927474473125 -1.264261569293237 -1.551618846359482 -1.385897599083999 0.01757904963222072 0.4039173317604716 1.752681013478438 3:0.9445979 43:0.3282298 
-0 -0 -0 -1.203340204794371 -0.02662178964745754 0 0 0 39:0.8610256 43:0.50856161 
-1.424223080728646 -5.450281902655676 -1.693353936788549 -1.942317780211266 -1.827778738333338 1.895886977625474 2.294470661666404 0.4815731886848048 40:0.82172809 62:0.56987976 
-0.08065302344761102 -1.332900534972866 -0.1386224550493144 -3.361977510475301 -0.1913674921881459 9.446104909098507 4.555120951626064 0.2050105282594227 39:0.67534577 60:0.73750125 
-0.431841765319647 -0 -0.5569489845816545 -0.2065462811504464 -1.20908808239988 0 0 0.1001770783342923 42:0.78138995 43:0.29688201 60:0.54889964 
-0.725601749733311 -10.55726631826204 -0.5941260499960691 -0.3397498473635814 -0.2020453289470108 0 0 0 43:0.50856161 62:0.8610256 
-0.7948122310401697 -0 -0.9534115987877514 -32 -0.9720856663577334 3.479194943785671 10.24524519215344 0.08373554943326225 39:0.8610256 43:0.50856161 
-0 -0 -0 -27.46074742346716 -0 0 0 0 43:1 
-0.7341672453552288 -0 -0.9126006782570033 -1.19407175597177 -1.942708355658431 0 0 0.1470134987494056 41:0.79620752 43:0.60502362 
-2.045698231838696 -1.020728688281078 -1.264496168577505 -1.552881134716604 -1.385553480290338 0.01747561155169819 0.4040851960852951 0.309261909965294 43:0.3282298 115:0.9445979 
-1.911555089350732 -1.55184933942497 -1.170372537867004 -0.9670465398158276 -1.282704373890424 1.28568700243395 0.240925363499065 0.3266270368452584 60:0.54051587 114:0.84133382 
-0 -0 -0 -0 -0 16.11964723901131 0 0 6:0.596284 43:0.38191119 60:0.70610852 
-1.419815860263954 -2.291062634234693 -3.331608844674632 -2.079011468818909 -32 32 1.683842823534179 0.4826897225440101 6:1 
-1.98300906465177 -2.540775025365355 -2.290525288627667 -32 -2.234972068169155 -10.50934998362776 32 0.8375405141861214 39:1 
-1.413060711787503 -1.810149152834498 -1.717211907930432 -1.512902259994777 -1.592809095855888 -1.307856571698566 1.571405466043591 0.5961441728842229 6:0.43581632 127:0.90003563 
-0.5804471288871138 -0.7423687506881435 -0.755710356169915 -0.621747591984825 -0.6532854805300861 -24.8085293479337 0.6443609958364898 0.2444188261057961 6:0.64519003 60:0.76402214 
-1.648309714412675 -2.112313430221637 -1.957803842921622 -1.765596701256869 -1.858686705989413 -1.612479077968735 1.833789698768836 0.6952769635999107 6:0.2353121 119:0.48595993 120:0.48595993 125:0.48595993 129:0.48595993 
-1.255316019674924 -1.608182845866454 -1.497091181658973 -1.343342550659984 -1.414690227414422 -1.872053497797503 1.394591328627695 0.5284796426795922 6:0.38728223 60:0.45861248 126:0.79980439 
-0 -0 -0 -0 -1.90867587514313 -0 0 0 6:1 
-0.4853977741077395 -0.6237872863714771 -1.866725023733078 -0.5205052308931634 -30.63934872483983 -27.00715002021485 0.5413332676227386 0.2062282504482144 6:1 
-0.5963214652544313 -0.77595524036626 -0.650203303432653 -30.64960883784113 -0.7340903404509751 -11.55579884937338 -32 0 39:1 
-2.202362961712153 -3.900018277983021 -2.445349917984081 -2.123405804833969 -2.468546637557247 -2.767560813489028 -1.740864610472755 0.8160862474390641 38:0.86190746 62:0.50706562 
-1.427335829896645 -1.847177529287719 -1.611142841183376 -1.598160680957656 -1.728610498648327 -1.778722110140097 -1.376698691167441 0.4531899864834329 39:0.46488945 121:0.88536874 
-1.382209052306325 -1.788111691901398 -1.558487061026846 -1.558013117409424 -1.672398687174105 -1.73992314856468 -1.363431081017814 1.76592590582507 4:0.86190746 39:0.50706562 
-1.759529121499383 -2.245193219708085 -2.116937466951503 -2.231148184644663 -2.04021553895483 -1.985602598757737 -1.504486374241341 0.6192642353963576 39:0.24671534 93:0.23674677 122:0.46986235 123:0.46986235 124:0.46986235 128:0.46986235 
-3.232782212517039 -3.558676329716086 -3.271609371607487 -3.321616285750998 -3.3696866050944 -4.040718087517097 -3.108088369903858 -3.654466375143925 1:0.48991015 2:0.48991015 3:0.43725866 4:0.43725866 24:0.37092563 
